digraph Tree {
node [shape=box, style="filled, rounded", color="black", fontname="helvetica"] ;
edge [fontname="helvetica"] ;
0 [label="x[64] <= 24.676\ngini = 0.461\nsamples = 11782\nvalue = [[7534, 4248]\n[7534, 4248]\n[7534, 4248]\n[7534, 4248]\n[7534, 4248]\n[7534, 4248]]", fillcolor="#ffffff"] ;
1 [label="x[10] <= 0.5\ngini = 0.345\nsamples = 4248\nvalue = [[0, 4248]\n[578, 3670]\n[1093, 3155]\n[1538, 2710]\n[1876, 2372]\n[2128, 2120]]", fillcolor="#f8dfcd"] ;
0 -> 1 [labeldistance=2.5, labelangle=45, headlabel="True"] ;
2 [label="x[11] <= 0.5\ngini = 0.249\nsamples = 1093\nvalue = [[0, 1093]\n[31, 1062]\n[110, 983]\n[208, 885]\n[376, 717]\n[511, 582]]", fillcolor="#f3c5a4"] ;
1 -> 2 ;
3 [label="x[12] <= 129.5\ngini = 0.203\nsamples = 519\nvalue = [[0, 519]\n[3, 516]\n[28, 491]\n[77, 442]\n[123, 396]\n[225, 294]]", fillcolor="#f0b990"] ;
2 -> 3 ;
4 [label="x[12] <= 87.5\ngini = 0.202\nsamples = 482\nvalue = [[0, 482]\n[3, 479]\n[26, 456]\n[71, 411]\n[113, 369]\n[200, 282]]", fillcolor="#f0b890"] ;
3 -> 4 ;
5 [label="x[12] <= 62.5\ngini = 0.208\nsamples = 313\nvalue = [[0, 313]\n[3, 310]\n[18, 295]\n[43, 270]\n[81, 232]\n[146, 167]]", fillcolor="#f1ba92"] ;
4 -> 5 ;
6 [label="x[14] <= 1.5\ngini = 0.171\nsamples = 202\nvalue = [[0, 202]\n[1, 201]\n[6, 196]\n[17, 185]\n[40, 162]\n[86, 116]]", fillcolor="#efb083"] ;
5 -> 6 ;
7 [label="x[12] <= 15.5\ngini = 0.122\nsamples = 48\nvalue = [[0, 48]\n[0, 48]\n[0, 48]\n[3, 45]\n[5, 43]\n[15, 33]]", fillcolor="#eca26d"] ;
6 -> 7 ;
8 [label="x[12] <= 1.5\ngini = 0.082\nsamples = 7\nvalue = [[0, 7]\n[0, 7]\n[0, 7]\n[0, 7]\n[0, 7]\n[4, 3]]", fillcolor="#ea975c"] ;
7 -> 8 ;
9 [label="gini = 0.0\nsamples = 1\nvalue = [[0, 1]\n[0, 1]\n[0, 1]\n[0, 1]\n[0, 1]\n[0, 1]]", fillcolor="#e58139"] ;
8 -> 9 ;
10 [label="x[14] <= 0.5\ngini = 0.074\nsamples = 6\nvalue = [[0, 6]\n[0, 6]\n[0, 6]\n[0, 6]\n[0, 6]\n[4, 2]]", fillcolor="#e99559"] ;
8 -> 10 ;
11 [label="x[12] <= 5.5\ngini = 0.074\nsamples = 3\nvalue = [[0, 3]\n[0, 3]\n[0, 3]\n[0, 3]\n[0, 3]\n[1, 2]]", fillcolor="#e99559"] ;
10 -> 11 ;
12 [label="gini = 0.0\nsamples = 1\nvalue = [[0, 1]\n[0, 1]\n[0, 1]\n[0, 1]\n[0, 1]\n[1, 0]]", fillcolor="#e58139"] ;
11 -> 12 ;
13 [label="gini = 0.0\nsamples = 2\nvalue = [[0, 2]\n[0, 2]\n[0, 2]\n[0, 2]\n[0, 2]\n[0, 2]]", fillcolor="#e58139"] ;
11 -> 13 ;
14 [label="gini = 0.0\nsamples = 3\nvalue = [[0, 3]\n[0, 3]\n[0, 3]\n[0, 3]\n[0, 3]\n[3, 0]]", fillcolor="#e58139"] ;
10 -> 14 ;
15 [label="x[12] <= 30.5\ngini = 0.124\nsamples = 41\nvalue = [[0, 41]\n[0, 41]\n[0, 41]\n[3, 38]\n[5, 36]\n[11, 30]]", fillcolor="#eca36e"] ;
7 -> 15 ;
16 [label="gini = 0.0\nsamples = 4\nvalue = [[0, 4]\n[0, 4]\n[0, 4]\n[0, 4]\n[0, 4]\n[0, 4]]", fillcolor="#e58139"] ;
15 -> 16 ;
17 [label="x[12] <= 35.0\ngini = 0.133\nsamples = 37\nvalue = [[0, 37]\n[0, 37]\n[0, 37]\n[3, 34]\n[5, 32]\n[11, 26]]", fillcolor="#eda572"] ;
15 -> 17 ;
18 [label="x[14] <= 0.5\ngini = 0.208\nsamples = 4\nvalue = [[0, 4]\n[0, 4]\n[0, 4]\n[1, 3]\n[1, 3]\n[2, 2]]", fillcolor="#f1ba92"] ;
17 -> 18 ;
19 [label="x[12] <= 31.5\ngini = 0.25\nsamples = 2\nvalue = [[0, 2]\n[0, 2]\n[0, 2]\n[1, 1]\n[1, 1]\n[1, 1]]", fillcolor="#f3c5a4"] ;
18 -> 19 ;
20 [label="gini = 0.0\nsamples = 1\nvalue = [[0, 1]\n[0, 1]\n[0, 1]\n[0, 1]\n[0, 1]\n[0, 1]]", fillcolor="#e58139"] ;
19 -> 20 ;
21 [label="gini = 0.0\nsamples = 1\nvalue = [[0, 1]\n[0, 1]\n[0, 1]\n[1, 0]\n[1, 0]\n[1, 0]]", fillcolor="#e58139"] ;
19 -> 21 ;
22 [label="x[12] <= 31.5\ngini = 0.083\nsamples = 2\nvalue = [[0, 2]\n[0, 2]\n[0, 2]\n[0, 2]\n[0, 2]\n[1, 1]]", fillcolor="#ea985d"] ;
18 -> 22 ;
23 [label="gini = 0.0\nsamples = 1\nvalue = [[0, 1]\n[0, 1]\n[0, 1]\n[0, 1]\n[0, 1]\n[1, 0]]", fillcolor="#e58139"] ;
22 -> 23 ;
24 [label="gini = 0.0\nsamples = 1\nvalue = [[0, 1]\n[0, 1]\n[0, 1]\n[0, 1]\n[0, 1]\n[0, 1]]", fillcolor="#e58139"] ;
22 -> 24 ;
25 [label="x[12] <= 42.5\ngini = 0.121\nsamples = 33\nvalue = [[0, 33]\n[0, 33]\n[0, 33]\n[2, 31]\n[4, 29]\n[9, 24]]", fillcolor="#eca26d"] ;
17 -> 25 ;
26 [label="gini = 0.0\nsamples = 5\nvalue = [[0, 5]\n[0, 5]\n[0, 5]\n[0, 5]\n[0, 5]\n[0, 5]]", fillcolor="#e58139"] ;
25 -> 26 ;
27 [label="x[9] <= 0.5\ngini = 0.136\nsamples = 28\nvalue = [[0, 28]\n[0, 28]\n[0, 28]\n[2, 26]\n[4, 24]\n[9, 19]]", fillcolor="#eda673"] ;
25 -> 27 ;
28 [label="x[12] <= 51.5\ngini = 0.121\nsamples = 25\nvalue = [[0, 25]\n[0, 25]\n[0, 25]\n[1, 24]\n[3, 22]\n[8, 17]]", fillcolor="#eca26d"] ;
27 -> 28 ;
29 [label="x[7] <= 0.5\ngini = 0.15\nsamples = 13\nvalue = [[0, 13]\n[0, 13]\n[0, 13]\n[1, 12]\n[2, 11]\n[6, 7]]", fillcolor="#edaa79"] ;
28 -> 29 ;
30 [label="x[12] <= 48.0\ngini = 0.132\nsamples = 12\nvalue = [[0, 12]\n[0, 12]\n[0, 12]\n[1, 11]\n[1, 11]\n[5, 7]]", fillcolor="#eca572"] ;
29 -> 30 ;
31 [label="x[6] <= 0.5\ngini = 0.074\nsamples = 9\nvalue = [[0, 9]\n[0, 9]\n[0, 9]\n[0, 9]\n[0, 9]\n[3, 6]]", fillcolor="#e99559"] ;
30 -> 31 ;
32 [label="x[4] <= 0.5\ngini = 0.078\nsamples = 8\nvalue = [[0, 8]\n[0, 8]\n[0, 8]\n[0, 8]\n[0, 8]\n[3, 5]]", fillcolor="#e9965b"] ;
31 -> 32 ;
33 [label="x[14] <= 0.5\ngini = 0.068\nsamples = 7\nvalue = [[0, 7]\n[0, 7]\n[0, 7]\n[0, 7]\n[0, 7]\n[2, 5]]", fillcolor="#e99456"] ;
32 -> 33 ;
34 [label="gini = 0.083\nsamples = 2\nvalue = [[0, 2]\n[0, 2]\n[0, 2]\n[0, 2]\n[0, 2]\n[1, 1]]", fillcolor="#ea985d"] ;
33 -> 34 ;
35 [label="x[2] <= 0.5\ngini = 0.053\nsamples = 5\nvalue = [[0, 5]\n[0, 5]\n[0, 5]\n[0, 5]\n[0, 5]\n[1, 4]]", fillcolor="#e89050"] ;
33 -> 35 ;
36 [label="x[12] <= 45.0\ngini = 0.062\nsamples = 4\nvalue = [[0, 4]\n[0, 4]\n[0, 4]\n[0, 4]\n[0, 4]\n[1, 3]]", fillcolor="#e99254"] ;
35 -> 36 ;
37 [label="gini = 0.0\nsamples = 1\nvalue = [[0, 1]\n[0, 1]\n[0, 1]\n[0, 1]\n[0, 1]\n[0, 1]]", fillcolor="#e58139"] ;
36 -> 37 ;
38 [label="gini = 0.074\nsamples = 3\nvalue = [[0, 3]\n[0, 3]\n[0, 3]\n[0, 3]\n[0, 3]\n[1, 2]]", fillcolor="#e99559"] ;
36 -> 38 ;
39 [label="gini = 0.0\nsamples = 1\nvalue = [[0, 1]\n[0, 1]\n[0, 1]\n[0, 1]\n[0, 1]\n[0, 1]]", fillcolor="#e58139"] ;
35 -> 39 ;
40 [label="gini = 0.0\nsamples = 1\nvalue = [[0, 1]\n[0, 1]\n[0, 1]\n[0, 1]\n[0, 1]\n[1, 0]]", fillcolor="#e58139"] ;
32 -> 40 ;
41 [label="gini = 0.0\nsamples = 1\nvalue = [[0, 1]\n[0, 1]\n[0, 1]\n[0, 1]\n[0, 1]\n[0, 1]]", fillcolor="#e58139"] ;
31 -> 41 ;
42 [label="gini = 0.222\nsamples = 3\nvalue = [[0, 3]\n[0, 3]\n[0, 3]\n[1, 2]\n[1, 2]\n[2, 1]]", fillcolor="#f2be98"] ;
30 -> 42 ;
43 [label="gini = 0.0\nsamples = 1\nvalue = [[0, 1]\n[0, 1]\n[0, 1]\n[0, 1]\n[1, 0]\n[1, 0]]", fillcolor="#e58139"] ;
29 -> 43 ;
44 [label="x[6] <= 0.5\ngini = 0.072\nsamples = 12\nvalue = [[0, 12]\n[0, 12]\n[0, 12]\n[0, 12]\n[1, 11]\n[2, 10]]", fillcolor="#e99558"] ;
28 -> 44 ;
45 [label="x[12] <= 57.0\ngini = 0.099\nsamples = 8\nvalue = [[0, 8]\n[0, 8]\n[0, 8]\n[0, 8]\n[1, 7]\n[2, 6]]", fillcolor="#eb9c63"] ;
44 -> 45 ;
46 [label="x[3] <= 0.5\ngini = 0.148\nsamples = 3\nvalue = [[0, 3]\n[0, 3]\n[0, 3]\n[0, 3]\n[1, 2]\n[1, 2]]", fillcolor="#eda979"] ;
45 -> 46 ;
47 [label="x[14] <= 0.5\ngini = 0.167\nsamples = 2\nvalue = [[0, 2]\n[0, 2]\n[0, 2]\n[0, 2]\n[1, 1]\n[1, 1]]", fillcolor="#eeaf81"] ;
46 -> 47 ;
48 [label="gini = 0.0\nsamples = 1\nvalue = [[0, 1]\n[0, 1]\n[0, 1]\n[0, 1]\n[1, 0]\n[1, 0]]", fillcolor="#e58139"] ;
47 -> 48 ;
49 [label="gini = 0.0\nsamples = 1\nvalue = [[0, 1]\n[0, 1]\n[0, 1]\n[0, 1]\n[0, 1]\n[0, 1]]", fillcolor="#e58139"] ;
47 -> 49 ;
50 [label="gini = 0.0\nsamples = 1\nvalue = [[0, 1]\n[0, 1]\n[0, 1]\n[0, 1]\n[0, 1]\n[0, 1]]", fillcolor="#e58139"] ;
46 -> 50 ;
51 [label="x[2] <= 0.5\ngini = 0.053\nsamples = 5\nvalue = [[0, 5]\n[0, 5]\n[0, 5]\n[0, 5]\n[0, 5]\n[1, 4]]", fillcolor="#e89050"] ;
45 -> 51 ;
52 [label="gini = 0.0\nsamples = 3\nvalue = [[0, 3]\n[0, 3]\n[0, 3]\n[0, 3]\n[0, 3]\n[0, 3]]", fillcolor="#e58139"] ;
51 -> 52 ;
53 [label="x[12] <= 60.5\ngini = 0.083\nsamples = 2\nvalue = [[0, 2]\n[0, 2]\n[0, 2]\n[0, 2]\n[0, 2]\n[1, 1]]", fillcolor="#ea985d"] ;
51 -> 53 ;
54 [label="gini = 0.0\nsamples = 1\nvalue = [[0, 1]\n[0, 1]\n[0, 1]\n[0, 1]\n[0, 1]\n[1, 0]]", fillcolor="#e58139"] ;
53 -> 54 ;
55 [label="gini = 0.0\nsamples = 1\nvalue = [[0, 1]\n[0, 1]\n[0, 1]\n[0, 1]\n[0, 1]\n[0, 1]]", fillcolor="#e58139"] ;
53 -> 55 ;
56 [label="gini = 0.0\nsamples = 4\nvalue = [[0, 4]\n[0, 4]\n[0, 4]\n[0, 4]\n[0, 4]\n[0, 4]]", fillcolor="#e58139"] ;
44 -> 56 ;
57 [label="x[12] <= 56.5\ngini = 0.222\nsamples = 3\nvalue = [[0, 3]\n[0, 3]\n[0, 3]\n[1, 2]\n[1, 2]\n[1, 2]]", fillcolor="#f2be98"] ;
27 -> 57 ;
58 [label="gini = 0.0\nsamples = 2\nvalue = [[0, 2]\n[0, 2]\n[0, 2]\n[0, 2]\n[0, 2]\n[0, 2]]", fillcolor="#e58139"] ;
57 -> 58 ;
59 [label="gini = 0.0\nsamples = 1\nvalue = [[0, 1]\n[0, 1]\n[0, 1]\n[1, 0]\n[1, 0]\n[1, 0]]", fillcolor="#e58139"] ;
57 -> 59 ;
60 [label="x[12] <= 17.5\ngini = 0.184\nsamples = 154\nvalue = [[0, 154]\n[1, 153]\n[6, 148]\n[14, 140]\n[35, 119]\n[71, 83]]", fillcolor="#efb388"] ;
6 -> 60 ;
61 [label="x[12] <= 3.5\ngini = 0.119\nsamples = 32\nvalue = [[0, 32]\n[0, 32]\n[0, 32]\n[2, 30]\n[3, 29]\n[10, 22]]", fillcolor="#eca26c"] ;
60 -> 61 ;
62 [label="x[14] <= 2.5\ngini = 0.179\nsamples = 14\nvalue = [[0, 14]\n[0, 14]\n[0, 14]\n[2, 12]\n[3, 11]\n[6, 8]]", fillcolor="#efb286"] ;
61 -> 62 ;
63 [label="gini = 0.0\nsamples = 2\nvalue = [[0, 2]\n[0, 2]\n[0, 2]\n[0, 2]\n[0, 2]\n[0, 2]]", fillcolor="#e58139"] ;
62 -> 63 ;
64 [label="x[4] <= 0.5\ngini = 0.192\nsamples = 12\nvalue = [[0, 12]\n[0, 12]\n[0, 12]\n[2, 10]\n[3, 9]\n[6, 6]]", fillcolor="#f0b68c"] ;
62 -> 64 ;
65 [label="x[13] <= 0.5\ngini = 0.165\nsamples = 9\nvalue = [[0, 9]\n[0, 9]\n[0, 9]\n[1, 8]\n[2, 7]\n[3, 6]]", fillcolor="#eeae80"] ;
64 -> 65 ;
66 [label="x[12] <= 2.5\ngini = 0.19\nsamples = 7\nvalue = [[0, 7]\n[0, 7]\n[0, 7]\n[1, 6]\n[2, 5]\n[3, 4]]", fillcolor="#f0b58b"] ;
65 -> 66 ;
67 [label="x[12] <= 1.5\ngini = 0.204\nsamples = 6\nvalue = [[0, 6]\n[0, 6]\n[0, 6]\n[1, 5]\n[2, 4]\n[3, 3]]", fillcolor="#f0b990"] ;
66 -> 67 ;
68 [label="x[14] <= 3.5\ngini = 0.187\nsamples = 5\nvalue = [[0, 5]\n[0, 5]\n[0, 5]\n[1, 4]\n[1, 4]\n[2, 3]]", fillcolor="#f0b489"] ;
67 -> 68 ;
69 [label="gini = 0.0\nsamples = 1\nvalue = [[0, 1]\n[0, 1]\n[0, 1]\n[0, 1]\n[0, 1]\n[1, 0]]", fillcolor="#e58139"] ;
68 -> 69 ;
70 [label="x[12] <= 0.5\ngini = 0.188\nsamples = 4\nvalue = [[0, 4]\n[0, 4]\n[0, 4]\n[1, 3]\n[1, 3]\n[1, 3]]", fillcolor="#f0b48a"] ;
68 -> 70 ;
71 [label="gini = 0.222\nsamples = 3\nvalue = [[0, 3]\n[0, 3]\n[0, 3]\n[1, 2]\n[1, 2]\n[1, 2]]", fillcolor="#f2be98"] ;
70 -> 71 ;
72 [label="gini = 0.0\nsamples = 1\nvalue = [[0, 1]\n[0, 1]\n[0, 1]\n[0, 1]\n[0, 1]\n[0, 1]]", fillcolor="#e58139"] ;
70 -> 72 ;
73 [label="gini = 0.0\nsamples = 1\nvalue = [[0, 1]\n[0, 1]\n[0, 1]\n[0, 1]\n[1, 0]\n[1, 0]]", fillcolor="#e58139"] ;
67 -> 73 ;
74 [label="gini = 0.0\nsamples = 1\nvalue = [[0, 1]\n[0, 1]\n[0, 1]\n[0, 1]\n[0, 1]\n[0, 1]]", fillcolor="#e58139"] ;
66 -> 74 ;
75 [label="gini = 0.0\nsamples = 2\nvalue = [[0, 2]\n[0, 2]\n[0, 2]\n[0, 2]\n[0, 2]\n[0, 2]]", fillcolor="#e58139"] ;
65 -> 75 ;
76 [label="x[12] <= 2.0\ngini = 0.148\nsamples = 3\nvalue = [[0, 3]\n[0, 3]\n[0, 3]\n[1, 2]\n[1, 2]\n[3, 0]]", fillcolor="#eda979"] ;
64 -> 76 ;
77 [label="gini = 0.0\nsamples = 2\nvalue = [[0, 2]\n[0, 2]\n[0, 2]\n[0, 2]\n[0, 2]\n[2, 0]]", fillcolor="#e58139"] ;
76 -> 77 ;
78 [label="gini = 0.0\nsamples = 1\nvalue = [[0, 1]\n[0, 1]\n[0, 1]\n[1, 0]\n[1, 0]\n[1, 0]]", fillcolor="#e58139"] ;
76 -> 78 ;
79 [label="x[12] <= 11.5\ngini = 0.058\nsamples = 18\nvalue = [[0, 18]\n[0, 18]\n[0, 18]\n[0, 18]\n[0, 18]\n[4, 14]]", fillcolor="#e89152"] ;
61 -> 79 ;
80 [label="x[12] <= 8.5\ngini = 0.071\nsamples = 13\nvalue = [[0, 13]\n[0, 13]\n[0, 13]\n[0, 13]\n[0, 13]\n[4, 9]]", fillcolor="#e99457"] ;
79 -> 80 ;
81 [label="x[12] <= 5.0\ngini = 0.036\nsamples = 8\nvalue = [[0, 8]\n[0, 8]\n[0, 8]\n[0, 8]\n[0, 8]\n[1, 7]]", fillcolor="#e78b49"] ;
80 -> 81 ;
82 [label="x[4] <= 0.5\ngini = 0.074\nsamples = 3\nvalue = [[0, 3]\n[0, 3]\n[0, 3]\n[0, 3]\n[0, 3]\n[1, 2]]", fillcolor="#e99559"] ;
81 -> 82 ;
83 [label="x[14] <= 5.5\ngini = 0.083\nsamples = 2\nvalue = [[0, 2]\n[0, 2]\n[0, 2]\n[0, 2]\n[0, 2]\n[1, 1]]", fillcolor="#ea985d"] ;
82 -> 83 ;
84 [label="gini = 0.0\nsamples = 1\nvalue = [[0, 1]\n[0, 1]\n[0, 1]\n[0, 1]\n[0, 1]\n[1, 0]]", fillcolor="#e58139"] ;
83 -> 84 ;
85 [label="gini = 0.0\nsamples = 1\nvalue = [[0, 1]\n[0, 1]\n[0, 1]\n[0, 1]\n[0, 1]\n[0, 1]]", fillcolor="#e58139"] ;
83 -> 85 ;
86 [label="gini = 0.0\nsamples = 1\nvalue = [[0, 1]\n[0, 1]\n[0, 1]\n[0, 1]\n[0, 1]\n[0, 1]]", fillcolor="#e58139"] ;
82 -> 86 ;
87 [label="gini = 0.0\nsamples = 5\nvalue = [[0, 5]\n[0, 5]\n[0, 5]\n[0, 5]\n[0, 5]\n[0, 5]]", fillcolor="#e58139"] ;
81 -> 87 ;
88 [label="x[12] <= 9.5\ngini = 0.08\nsamples = 5\nvalue = [[0, 5]\n[0, 5]\n[0, 5]\n[0, 5]\n[0, 5]\n[3, 2]]", fillcolor="#ea975b"] ;
80 -> 88 ;
89 [label="gini = 0.0\nsamples = 2\nvalue = [[0, 2]\n[0, 2]\n[0, 2]\n[0, 2]\n[0, 2]\n[2, 0]]", fillcolor="#e58139"] ;
88 -> 89 ;
90 [label="x[12] <= 10.5\ngini = 0.074\nsamples = 3\nvalue = [[0, 3]\n[0, 3]\n[0, 3]\n[0, 3]\n[0, 3]\n[1, 2]]", fillcolor="#e99559"] ;
88 -> 90 ;
91 [label="gini = 0.0\nsamples = 1\nvalue = [[0, 1]\n[0, 1]\n[0, 1]\n[0, 1]\n[0, 1]\n[0, 1]]", fillcolor="#e58139"] ;
90 -> 91 ;
92 [label="x[14] <= 3.0\ngini = 0.083\nsamples = 2\nvalue = [[0, 2]\n[0, 2]\n[0, 2]\n[0, 2]\n[0, 2]\n[1, 1]]", fillcolor="#ea985d"] ;
90 -> 92 ;
93 [label="gini = 0.0\nsamples = 1\nvalue = [[0, 1]\n[0, 1]\n[0, 1]\n[0, 1]\n[0, 1]\n[0, 1]]", fillcolor="#e58139"] ;
92 -> 93 ;
94 [label="gini = 0.0\nsamples = 1\nvalue = [[0, 1]\n[0, 1]\n[0, 1]\n[0, 1]\n[0, 1]\n[1, 0]]", fillcolor="#e58139"] ;
92 -> 94 ;
95 [label="gini = 0.0\nsamples = 5\nvalue = [[0, 5]\n[0, 5]\n[0, 5]\n[0, 5]\n[0, 5]\n[0, 5]]", fillcolor="#e58139"] ;
79 -> 95 ;
96 [label="x[12] <= 55.5\ngini = 0.196\nsamples = 122\nvalue = [[0, 122]\n[1, 121]\n[6, 116]\n[12, 110]\n[32, 90]\n[61, 61]]", fillcolor="#f0b68d"] ;
60 -> 96 ;
97 [label="x[14] <= 2.5\ngini = 0.189\nsamples = 93\nvalue = [[0, 93]\n[0, 93]\n[3, 90]\n[9, 84]\n[26, 67]\n[52, 41]]", fillcolor="#f0b58a"] ;
96 -> 97 ;
98 [label="x[12] <= 23.5\ngini = 0.198\nsamples = 17\nvalue = [[0, 17]\n[0, 17]\n[1, 16]\n[2, 15]\n[5, 12]\n[6, 11]]", fillcolor="#f0b78e"] ;
97 -> 98 ;
99 [label="gini = 0.0\nsamples = 1\nvalue = [[0, 1]\n[0, 1]\n[0, 1]\n[1, 0]\n[1, 0]\n[1, 0]]", fillcolor="#e58139"] ;
98 -> 99 ;
100 [label="x[12] <= 51.5\ngini = 0.173\nsamples = 16\nvalue = [[0, 16]\n[0, 16]\n[1, 15]\n[1, 15]\n[4, 12]\n[5, 11]]", fillcolor="#efb083"] ;
98 -> 100 ;
101 [label="x[12] <= 35.0\ngini = 0.16\nsamples = 15\nvalue = [[0, 15]\n[0, 15]\n[1, 14]\n[1, 14]\n[3, 12]\n[4, 11]]", fillcolor="#eead7e"] ;
100 -> 101 ;
102 [label="x[12] <= 31.0\ngini = 0.25\nsamples = 6\nvalue = [[0, 6]\n[0, 6]\n[1, 5]\n[1, 5]\n[2, 4]\n[3, 3]]", fillcolor="#f3c5a4"] ;
101 -> 102 ;
103 [label="x[12] <= 29.5\ngini = 0.133\nsamples = 5\nvalue = [[0, 5]\n[0, 5]\n[0, 5]\n[0, 5]\n[1, 4]\n[2, 3]]", fillcolor="#eda572"] ;
102 -> 103 ;
104 [label="x[12] <= 28.0\ngini = 0.148\nsamples = 3\nvalue = [[0, 3]\n[0, 3]\n[0, 3]\n[0, 3]\n[1, 2]\n[2, 1]]", fillcolor="#eda979"] ;
103 -> 104 ;
105 [label="gini = 0.167\nsamples = 2\nvalue = [[0, 2]\n[0, 2]\n[0, 2]\n[0, 2]\n[1, 1]\n[1, 1]]", fillcolor="#eeaf81"] ;
104 -> 105 ;
106 [label="gini = 0.0\nsamples = 1\nvalue = [[0, 1]\n[0, 1]\n[0, 1]\n[0, 1]\n[0, 1]\n[1, 0]]", fillcolor="#e58139"] ;
104 -> 106 ;
107 [label="gini = 0.0\nsamples = 2\nvalue = [[0, 2]\n[0, 2]\n[0, 2]\n[0, 2]\n[0, 2]\n[0, 2]]", fillcolor="#e58139"] ;
103 -> 107 ;
108 [label="gini = 0.0\nsamples = 1\nvalue = [[0, 1]\n[0, 1]\n[1, 0]\n[1, 0]\n[1, 0]\n[1, 0]]", fillcolor="#e58139"] ;
102 -> 108 ;
109 [label="x[12] <= 41.5\ngini = 0.066\nsamples = 9\nvalue = [[0, 9]\n[0, 9]\n[0, 9]\n[0, 9]\n[1, 8]\n[1, 8]]", fillcolor="#e99355"] ;
101 -> 109 ;
110 [label="x[12] <= 40.5\ngini = 0.125\nsamples = 4\nvalue = [[0, 4]\n[0, 4]\n[0, 4]\n[0, 4]\n[1, 3]\n[1, 3]]", fillcolor="#eca36f"] ;
109 -> 110 ;
111 [label="gini = 0.0\nsamples = 3\nvalue = [[0, 3]\n[0, 3]\n[0, 3]\n[0, 3]\n[0, 3]\n[0, 3]]", fillcolor="#e58139"] ;
110 -> 111 ;
112 [label="gini = 0.0\nsamples = 1\nvalue = [[0, 1]\n[0, 1]\n[0, 1]\n[0, 1]\n[1, 0]\n[1, 0]]", fillcolor="#e58139"] ;
110 -> 112 ;
113 [label="gini = 0.0\nsamples = 5\nvalue = [[0, 5]\n[0, 5]\n[0, 5]\n[0, 5]\n[0, 5]\n[0, 5]]", fillcolor="#e58139"] ;
109 -> 113 ;
114 [label="gini = 0.0\nsamples = 1\nvalue = [[0, 1]\n[0, 1]\n[0, 1]\n[0, 1]\n[1, 0]\n[1, 0]]", fillcolor="#e58139"] ;
100 -> 114 ;
115 [label="x[12] <= 45.5\ngini = 0.183\nsamples = 76\nvalue = [[0, 76]\n[0, 76]\n[2, 74]\n[7, 69]\n[21, 55]\n[46, 30]]", fillcolor="#efb387"] ;
97 -> 115 ;
116 [label="x[7] <= 0.5\ngini = 0.168\nsamples = 43\nvalue = [[0, 43]\n[0, 43]\n[0, 43]\n[2, 41]\n[13, 30]\n[23, 20]]", fillcolor="#eeaf81"] ;
115 -> 116 ;
117 [label="x[1] <= 0.5\ngini = 0.17\nsamples = 40\nvalue = [[0, 40]\n[0, 40]\n[0, 40]\n[2, 38]\n[13, 27]\n[23, 17]]", fillcolor="#efb082"] ;
116 -> 117 ;
118 [label="x[14] <= 3.5\ngini = 0.162\nsamples = 34\nvalue = [[0, 34]\n[0, 34]\n[0, 34]\n[1, 33]\n[10, 24]\n[18, 16]]", fillcolor="#eead7e"] ;
117 -> 118 ;
119 [label="x[12] <= 25.0\ngini = 0.11\nsamples = 10\nvalue = [[0, 10]\n[0, 10]\n[0, 10]\n[0, 10]\n[1, 9]\n[4, 6]]", fillcolor="#eb9f68"] ;
118 -> 119 ;
120 [label="gini = 0.0\nsamples = 1\nvalue = [[0, 1]\n[0, 1]\n[0, 1]\n[0, 1]\n[0, 1]\n[1, 0]]", fillcolor="#e58139"] ;
119 -> 120 ;
121 [label="x[12] <= 29.5\ngini = 0.107\nsamples = 9\nvalue = [[0, 9]\n[0, 9]\n[0, 9]\n[0, 9]\n[1, 8]\n[3, 6]]", fillcolor="#eb9e67"] ;
119 -> 121 ;
122 [label="gini = 0.0\nsamples = 2\nvalue = [[0, 2]\n[0, 2]\n[0, 2]\n[0, 2]\n[0, 2]\n[0, 2]]", fillcolor="#e58139"] ;
121 -> 122 ;
123 [label="x[12] <= 34.0\ngini = 0.122\nsamples = 7\nvalue = [[0, 7]\n[0, 7]\n[0, 7]\n[0, 7]\n[1, 6]\n[3, 4]]", fillcolor="#eca26e"] ;
121 -> 123 ;
124 [label="x[12] <= 30.5\ngini = 0.148\nsamples = 3\nvalue = [[0, 3]\n[0, 3]\n[0, 3]\n[0, 3]\n[1, 2]\n[2, 1]]", fillcolor="#eda979"] ;
123 -> 124 ;
125 [label="gini = 0.0\nsamples = 1\nvalue = [[0, 1]\n[0, 1]\n[0, 1]\n[0, 1]\n[0, 1]\n[1, 0]]", fillcolor="#e58139"] ;
124 -> 125 ;
126 [label="gini = 0.167\nsamples = 2\nvalue = [[0, 2]\n[0, 2]\n[0, 2]\n[0, 2]\n[1, 1]\n[1, 1]]", fillcolor="#eeaf81"] ;
124 -> 126 ;
127 [label="x[12] <= 42.0\ngini = 0.062\nsamples = 4\nvalue = [[0, 4]\n[0, 4]\n[0, 4]\n[0, 4]\n[0, 4]\n[1, 3]]", fillcolor="#e99254"] ;
123 -> 127 ;
128 [label="gini = 0.0\nsamples = 2\nvalue = [[0, 2]\n[0, 2]\n[0, 2]\n[0, 2]\n[0, 2]\n[0, 2]]", fillcolor="#e58139"] ;
127 -> 128 ;
129 [label="x[12] <= 43.5\ngini = 0.083\nsamples = 2\nvalue = [[0, 2]\n[0, 2]\n[0, 2]\n[0, 2]\n[0, 2]\n[1, 1]]", fillcolor="#ea985d"] ;
127 -> 129 ;
130 [label="gini = 0.0\nsamples = 1\nvalue = [[0, 1]\n[0, 1]\n[0, 1]\n[0, 1]\n[0, 1]\n[1, 0]]", fillcolor="#e58139"] ;
129 -> 130 ;
131 [label="gini = 0.0\nsamples = 1\nvalue = [[0, 1]\n[0, 1]\n[0, 1]\n[0, 1]\n[0, 1]\n[0, 1]]", fillcolor="#e58139"] ;
129 -> 131 ;
132 [label="x[14] <= 5.5\ngini = 0.172\nsamples = 24\nvalue = [[0, 24]\n[0, 24]\n[0, 24]\n[1, 23]\n[9, 15]\n[14, 10]]", fillcolor="#efb083"] ;
118 -> 132 ;
133 [label="x[12] <= 24.0\ngini = 0.168\nsamples = 17\nvalue = [[0, 17]\n[0, 17]\n[0, 17]\n[1, 16]\n[7, 10]\n[12, 5]]", fillcolor="#eeaf81"] ;
132 -> 133 ;
134 [label="gini = 0.0\nsamples = 1\nvalue = [[0, 1]\n[0, 1]\n[0, 1]\n[0, 1]\n[0, 1]\n[0, 1]]", fillcolor="#e58139"] ;
133 -> 134 ;
135 [label="x[12] <= 33.5\ngini = 0.164\nsamples = 16\nvalue = [[0, 16]\n[0, 16]\n[0, 16]\n[1, 15]\n[7, 9]\n[12, 4]]", fillcolor="#eeae7f"] ;
133 -> 135 ;
136 [label="x[12] <= 31.0\ngini = 0.163\nsamples = 10\nvalue = [[0, 10]\n[0, 10]\n[0, 10]\n[1, 9]\n[6, 4]\n[8, 2]]", fillcolor="#eeae7f"] ;
135 -> 136 ;
137 [label="x[14] <= 4.5\ngini = 0.122\nsamples = 7\nvalue = [[0, 7]\n[0, 7]\n[0, 7]\n[0, 7]\n[4, 3]\n[6, 1]]", fillcolor="#eca26e"] ;
136 -> 137 ;
138 [label="x[12] <= 29.5\ngini = 0.133\nsamples = 5\nvalue = [[0, 5]\n[0, 5]\n[0, 5]\n[0, 5]\n[2, 3]\n[4, 1]]", fillcolor="#eda572"] ;
137 -> 138 ;
139 [label="gini = 0.148\nsamples = 3\nvalue = [[0, 3]\n[0, 3]\n[0, 3]\n[0, 3]\n[2, 1]\n[2, 1]]", fillcolor="#eda979"] ;
138 -> 139 ;
140 [label="gini = 0.0\nsamples = 2\nvalue = [[0, 2]\n[0, 2]\n[0, 2]\n[0, 2]\n[0, 2]\n[2, 0]]", fillcolor="#e58139"] ;
138 -> 140 ;
141 [label="gini = 0.0\nsamples = 2\nvalue = [[0, 2]\n[0, 2]\n[0, 2]\n[0, 2]\n[2, 0]\n[2, 0]]", fillcolor="#e58139"] ;
137 -> 141 ;
142 [label="x[13] <= 0.5\ngini = 0.222\nsamples = 3\nvalue = [[0, 3]\n[0, 3]\n[0, 3]\n[1, 2]\n[2, 1]\n[2, 1]]", fillcolor="#f2be98"] ;
136 -> 142 ;
143 [label="gini = 0.0\nsamples = 1\nvalue = [[0, 1]\n[0, 1]\n[0, 1]\n[1, 0]\n[1, 0]\n[1, 0]]", fillcolor="#e58139"] ;
142 -> 143 ;
144 [label="x[12] <= 32.5\ngini = 0.167\nsamples = 2\nvalue = [[0, 2]\n[0, 2]\n[0, 2]\n[0, 2]\n[1, 1]\n[1, 1]]", fillcolor="#eeaf81"] ;
142 -> 144 ;
145 [label="gini = 0.0\nsamples = 1\nvalue = [[0, 1]\n[0, 1]\n[0, 1]\n[0, 1]\n[0, 1]\n[0, 1]]", fillcolor="#e58139"] ;
144 -> 145 ;
146 [label="gini = 0.0\nsamples = 1\nvalue = [[0, 1]\n[0, 1]\n[0, 1]\n[0, 1]\n[1, 0]\n[1, 0]]", fillcolor="#e58139"] ;
144 -> 146 ;
147 [label="x[12] <= 41.5\ngini = 0.12\nsamples = 6\nvalue = [[0, 6]\n[0, 6]\n[0, 6]\n[0, 6]\n[1, 5]\n[4, 2]]", fillcolor="#eca26d"] ;
135 -> 147 ;
148 [label="gini = 0.0\nsamples = 3\nvalue = [[0, 3]\n[0, 3]\n[0, 3]\n[0, 3]\n[0, 3]\n[3, 0]]", fillcolor="#e58139"] ;
147 -> 148 ;
149 [label="x[12] <= 44.5\ngini = 0.148\nsamples = 3\nvalue = [[0, 3]\n[0, 3]\n[0, 3]\n[0, 3]\n[1, 2]\n[1, 2]]", fillcolor="#eda979"] ;
147 -> 149 ;
150 [label="gini = 0.0\nsamples = 1\nvalue = [[0, 1]\n[0, 1]\n[0, 1]\n[0, 1]\n[1, 0]\n[0, 1]]", fillcolor="#e58139"] ;
149 -> 150 ;
151 [label="gini = 0.083\nsamples = 2\nvalue = [[0, 2]\n[0, 2]\n[0, 2]\n[0, 2]\n[0, 2]\n[1, 1]]", fillcolor="#ea985d"] ;
149 -> 151 ;
152 [label="x[12] <= 41.0\ngini = 0.136\nsamples = 7\nvalue = [[0, 7]\n[0, 7]\n[0, 7]\n[0, 7]\n[2, 5]\n[2, 5]]", fillcolor="#eda673"] ;
132 -> 152 ;
153 [label="x[12] <= 33.0\ngini = 0.093\nsamples = 6\nvalue = [[0, 6]\n[0, 6]\n[0, 6]\n[0, 6]\n[1, 5]\n[1, 5]]", fillcolor="#ea9a61"] ;
152 -> 153 ;
154 [label="x[12] <= 31.5\ngini = 0.074\nsamples = 3\nvalue = [[0, 3]\n[0, 3]\n[0, 3]\n[0, 3]\n[1, 2]\n[0, 3]]", fillcolor="#e99559"] ;
153 -> 154 ;
155 [label="gini = 0.0\nsamples = 2\nvalue = [[0, 2]\n[0, 2]\n[0, 2]\n[0, 2]\n[0, 2]\n[0, 2]]", fillcolor="#e58139"] ;
154 -> 155 ;
156 [label="gini = 0.0\nsamples = 1\nvalue = [[0, 1]\n[0, 1]\n[0, 1]\n[0, 1]\n[1, 0]\n[0, 1]]", fillcolor="#e58139"] ;
154 -> 156 ;
157 [label="x[12] <= 35.0\ngini = 0.074\nsamples = 3\nvalue = [[0, 3]\n[0, 3]\n[0, 3]\n[0, 3]\n[0, 3]\n[1, 2]]", fillcolor="#e99559"] ;
153 -> 157 ;
158 [label="gini = 0.0\nsamples = 1\nvalue = [[0, 1]\n[0, 1]\n[0, 1]\n[0, 1]\n[0, 1]\n[1, 0]]", fillcolor="#e58139"] ;
157 -> 158 ;
159 [label="gini = 0.0\nsamples = 2\nvalue = [[0, 2]\n[0, 2]\n[0, 2]\n[0, 2]\n[0, 2]\n[0, 2]]", fillcolor="#e58139"] ;
157 -> 159 ;
160 [label="gini = 0.0\nsamples = 1\nvalue = [[0, 1]\n[0, 1]\n[0, 1]\n[0, 1]\n[1, 0]\n[1, 0]]", fillcolor="#e58139"] ;
152 -> 160 ;
161 [label="x[0] <= 0.5\ngini = 0.176\nsamples = 6\nvalue = [[0, 6]\n[0, 6]\n[0, 6]\n[1, 5]\n[3, 3]\n[5, 1]]", fillcolor="#efb185"] ;
117 -> 161 ;
162 [label="gini = 0.0\nsamples = 1\nvalue = [[0, 1]\n[0, 1]\n[0, 1]\n[1, 0]\n[0, 1]\n[0, 1]]", fillcolor="#e58139"] ;
161 -> 162 ;
163 [label="x[12] <= 41.5\ngini = 0.08\nsamples = 5\nvalue = [[0, 5]\n[0, 5]\n[0, 5]\n[0, 5]\n[3, 2]\n[5, 0]]", fillcolor="#ea975b"] ;
161 -> 163 ;
164 [label="gini = 0.0\nsamples = 2\nvalue = [[0, 2]\n[0, 2]\n[0, 2]\n[0, 2]\n[2, 0]\n[2, 0]]", fillcolor="#e58139"] ;
163 -> 164 ;
165 [label="x[2] <= 0.5\ngini = 0.074\nsamples = 3\nvalue = [[0, 3]\n[0, 3]\n[0, 3]\n[0, 3]\n[1, 2]\n[3, 0]]", fillcolor="#e99559"] ;
163 -> 165 ;
166 [label="gini = 0.0\nsamples = 1\nvalue = [[0, 1]\n[0, 1]\n[0, 1]\n[0, 1]\n[1, 0]\n[1, 0]]", fillcolor="#e58139"] ;
165 -> 166 ;
167 [label="gini = 0.0\nsamples = 2\nvalue = [[0, 2]\n[0, 2]\n[0, 2]\n[0, 2]\n[0, 2]\n[2, 0]]", fillcolor="#e58139"] ;
165 -> 167 ;
168 [label="gini = 0.0\nsamples = 3\nvalue = [[0, 3]\n[0, 3]\n[0, 3]\n[0, 3]\n[0, 3]\n[0, 3]]", fillcolor="#e58139"] ;
116 -> 168 ;
169 [label="x[12] <= 46.5\ngini = 0.193\nsamples = 33\nvalue = [[0, 33]\n[0, 33]\n[2, 31]\n[5, 28]\n[8, 25]\n[23, 10]]", fillcolor="#f0b68c"] ;
115 -> 169 ;
170 [label="gini = 0.0\nsamples = 1\nvalue = [[0, 1]\n[0, 1]\n[0, 1]\n[1, 0]\n[1, 0]\n[1, 0]]", fillcolor="#e58139"] ;
169 -> 170 ;
171 [label="x[8] <= 0.5\ngini = 0.185\nsamples = 32\nvalue = [[0, 32]\n[0, 32]\n[2, 30]\n[4, 28]\n[7, 25]\n[22, 10]]", fillcolor="#efb388"] ;
169 -> 171 ;
172 [label="x[12] <= 51.5\ngini = 0.173\nsamples = 27\nvalue = [[0, 27]\n[0, 27]\n[1, 26]\n[3, 24]\n[5, 22]\n[17, 10]]", fillcolor="#efb083"] ;
171 -> 172 ;
173 [label="x[5] <= 0.5\ngini = 0.185\nsamples = 22\nvalue = [[0, 22]\n[0, 22]\n[1, 21]\n[3, 19]\n[5, 17]\n[15, 7]]", fillcolor="#efb388"] ;
172 -> 173 ;
174 [label="x[12] <= 49.5\ngini = 0.164\nsamples = 18\nvalue = [[0, 18]\n[0, 18]\n[1, 17]\n[2, 16]\n[3, 15]\n[13, 5]]", fillcolor="#eeae7f"] ;
173 -> 174 ;
175 [label="x[0] <= 0.5\ngini = 0.083\nsamples = 10\nvalue = [[0, 10]\n[0, 10]\n[0, 10]\n[0, 10]\n[1, 9]\n[8, 2]]", fillcolor="#ea985d"] ;
174 -> 175 ;
176 [label="x[14] <= 4.5\ngini = 0.058\nsamples = 9\nvalue = [[0, 9]\n[0, 9]\n[0, 9]\n[0, 9]\n[0, 9]\n[7, 2]]", fillcolor="#e89152"] ;
175 -> 176 ;
177 [label="gini = 0.0\nsamples = 4\nvalue = [[0, 4]\n[0, 4]\n[0, 4]\n[0, 4]\n[0, 4]\n[4, 0]]", fillcolor="#e58139"] ;
176 -> 177 ;
178 [label="x[12] <= 48.5\ngini = 0.08\nsamples = 5\nvalue = [[0, 5]\n[0, 5]\n[0, 5]\n[0, 5]\n[0, 5]\n[3, 2]]", fillcolor="#ea975b"] ;
176 -> 178 ;
179 [label="x[12] <= 47.5\ngini = 0.083\nsamples = 4\nvalue = [[0, 4]\n[0, 4]\n[0, 4]\n[0, 4]\n[0, 4]\n[2, 2]]", fillcolor="#ea985d"] ;
178 -> 179 ;
180 [label="x[14] <= 5.5\ngini = 0.074\nsamples = 3\nvalue = [[0, 3]\n[0, 3]\n[0, 3]\n[0, 3]\n[0, 3]\n[2, 1]]", fillcolor="#e99559"] ;
179 -> 180 ;
181 [label="gini = 0.083\nsamples = 2\nvalue = [[0, 2]\n[0, 2]\n[0, 2]\n[0, 2]\n[0, 2]\n[1, 1]]", fillcolor="#ea985d"] ;
180 -> 181 ;
182 [label="gini = 0.0\nsamples = 1\nvalue = [[0, 1]\n[0, 1]\n[0, 1]\n[0, 1]\n[0, 1]\n[1, 0]]", fillcolor="#e58139"] ;
180 -> 182 ;
183 [label="gini = 0.0\nsamples = 1\nvalue = [[0, 1]\n[0, 1]\n[0, 1]\n[0, 1]\n[0, 1]\n[0, 1]]", fillcolor="#e58139"] ;
179 -> 183 ;
184 [label="gini = 0.0\nsamples = 1\nvalue = [[0, 1]\n[0, 1]\n[0, 1]\n[0, 1]\n[0, 1]\n[1, 0]]", fillcolor="#e58139"] ;
178 -> 184 ;
185 [label="gini = 0.0\nsamples = 1\nvalue = [[0, 1]\n[0, 1]\n[0, 1]\n[0, 1]\n[1, 0]\n[1, 0]]", fillcolor="#e58139"] ;
175 -> 185 ;
186 [label="x[12] <= 50.5\ngini = 0.24\nsamples = 8\nvalue = [[0, 8]\n[0, 8]\n[1, 7]\n[2, 6]\n[2, 6]\n[5, 3]]", fillcolor="#f3c2a0"] ;
174 -> 186 ;
187 [label="x[13] <= 0.5\ngini = 0.25\nsamples = 4\nvalue = [[0, 4]\n[0, 4]\n[1, 3]\n[1, 3]\n[1, 3]\n[1, 3]]", fillcolor="#f3c5a4"] ;
186 -> 187 ;
188 [label="gini = 0.0\nsamples = 2\nvalue = [[0, 2]\n[0, 2]\n[0, 2]\n[0, 2]\n[0, 2]\n[0, 2]]", fillcolor="#e58139"] ;
187 -> 188 ;
189 [label="x[0] <= 0.5\ngini = 0.333\nsamples = 2\nvalue = [[0, 2]\n[0, 2]\n[1, 1]\n[1, 1]\n[1, 1]\n[1, 1]]", fillcolor="#f8dcc8"] ;
187 -> 189 ;
190 [label="gini = 0.0\nsamples = 1\nvalue = [[0, 1]\n[0, 1]\n[1, 0]\n[1, 0]\n[1, 0]\n[1, 0]]", fillcolor="#e58139"] ;
189 -> 190 ;
191 [label="gini = 0.0\nsamples = 1\nvalue = [[0, 1]\n[0, 1]\n[0, 1]\n[0, 1]\n[0, 1]\n[0, 1]]", fillcolor="#e58139"] ;
189 -> 191 ;
192 [label="x[14] <= 4.5\ngini = 0.125\nsamples = 4\nvalue = [[0, 4]\n[0, 4]\n[0, 4]\n[1, 3]\n[1, 3]\n[4, 0]]", fillcolor="#eca36f"] ;
186 -> 192 ;
193 [label="gini = 0.0\nsamples = 1\nvalue = [[0, 1]\n[0, 1]\n[0, 1]\n[0, 1]\n[0, 1]\n[1, 0]]", fillcolor="#e58139"] ;
192 -> 193 ;
194 [label="x[14] <= 5.5\ngini = 0.148\nsamples = 3\nvalue = [[0, 3]\n[0, 3]\n[0, 3]\n[1, 2]\n[1, 2]\n[3, 0]]", fillcolor="#eda979"] ;
192 -> 194 ;
195 [label="gini = 0.167\nsamples = 2\nvalue = [[0, 2]\n[0, 2]\n[0, 2]\n[1, 1]\n[1, 1]\n[2, 0]]", fillcolor="#eeaf81"] ;
194 -> 195 ;
196 [label="gini = 0.0\nsamples = 1\nvalue = [[0, 1]\n[0, 1]\n[0, 1]\n[0, 1]\n[0, 1]\n[1, 0]]", fillcolor="#e58139"] ;
194 -> 196 ;
197 [label="x[14] <= 4.5\ngini = 0.229\nsamples = 4\nvalue = [[0, 4]\n[0, 4]\n[0, 4]\n[1, 3]\n[2, 2]\n[2, 2]]", fillcolor="#f2c09b"] ;
173 -> 197 ;
198 [label="x[1] <= 0.5\ngini = 0.222\nsamples = 3\nvalue = [[0, 3]\n[0, 3]\n[0, 3]\n[1, 2]\n[2, 1]\n[2, 1]]", fillcolor="#f2be98"] ;
197 -> 198 ;
199 [label="x[7] <= 0.5\ngini = 0.083\nsamples = 2\nvalue = [[0, 2]\n[0, 2]\n[0, 2]\n[1, 1]\n[2, 0]\n[2, 0]]", fillcolor="#ea985d"] ;
198 -> 199 ;
200 [label="gini = 0.0\nsamples = 1\nvalue = [[0, 1]\n[0, 1]\n[0, 1]\n[0, 1]\n[1, 0]\n[1, 0]]", fillcolor="#e58139"] ;
199 -> 200 ;
201 [label="gini = 0.0\nsamples = 1\nvalue = [[0, 1]\n[0, 1]\n[0, 1]\n[1, 0]\n[1, 0]\n[1, 0]]", fillcolor="#e58139"] ;
199 -> 201 ;
202 [label="gini = 0.0\nsamples = 1\nvalue = [[0, 1]\n[0, 1]\n[0, 1]\n[0, 1]\n[0, 1]\n[0, 1]]", fillcolor="#e58139"] ;
198 -> 202 ;
203 [label="gini = 0.0\nsamples = 1\nvalue = [[0, 1]\n[0, 1]\n[0, 1]\n[0, 1]\n[0, 1]\n[0, 1]]", fillcolor="#e58139"] ;
197 -> 203 ;
204 [label="x[13] <= 0.5\ngini = 0.08\nsamples = 5\nvalue = [[0, 5]\n[0, 5]\n[0, 5]\n[0, 5]\n[0, 5]\n[2, 3]]", fillcolor="#ea975b"] ;
172 -> 204 ;
205 [label="gini = 0.0\nsamples = 2\nvalue = [[0, 2]\n[0, 2]\n[0, 2]\n[0, 2]\n[0, 2]\n[2, 0]]", fillcolor="#e58139"] ;
204 -> 205 ;
206 [label="gini = 0.0\nsamples = 3\nvalue = [[0, 3]\n[0, 3]\n[0, 3]\n[0, 3]\n[0, 3]\n[0, 3]]", fillcolor="#e58139"] ;
204 -> 206 ;
207 [label="x[3] <= 0.5\ngini = 0.187\nsamples = 5\nvalue = [[0, 5]\n[0, 5]\n[1, 4]\n[1, 4]\n[2, 3]\n[5, 0]]", fillcolor="#f0b489"] ;
171 -> 207 ;
208 [label="x[13] <= 0.5\ngini = 0.062\nsamples = 4\nvalue = [[0, 4]\n[0, 4]\n[0, 4]\n[0, 4]\n[1, 3]\n[4, 0]]", fillcolor="#e99254"] ;
207 -> 208 ;
209 [label="gini = 0.0\nsamples = 2\nvalue = [[0, 2]\n[0, 2]\n[0, 2]\n[0, 2]\n[0, 2]\n[2, 0]]", fillcolor="#e58139"] ;
208 -> 209 ;
210 [label="x[12] <= 52.5\ngini = 0.083\nsamples = 2\nvalue = [[0, 2]\n[0, 2]\n[0, 2]\n[0, 2]\n[1, 1]\n[2, 0]]", fillcolor="#ea985d"] ;
208 -> 210 ;
211 [label="gini = 0.0\nsamples = 1\nvalue = [[0, 1]\n[0, 1]\n[0, 1]\n[0, 1]\n[0, 1]\n[1, 0]]", fillcolor="#e58139"] ;
210 -> 211 ;
212 [label="gini = 0.0\nsamples = 1\nvalue = [[0, 1]\n[0, 1]\n[0, 1]\n[0, 1]\n[1, 0]\n[1, 0]]", fillcolor="#e58139"] ;
210 -> 212 ;
213 [label="gini = 0.0\nsamples = 1\nvalue = [[0, 1]\n[0, 1]\n[1, 0]\n[1, 0]\n[1, 0]\n[1, 0]]", fillcolor="#e58139"] ;
207 -> 213 ;
214 [label="x[14] <= 2.5\ngini = 0.199\nsamples = 29\nvalue = [[0, 29]\n[1, 28]\n[3, 26]\n[3, 26]\n[6, 23]\n[9, 20]]", fillcolor="#f0b78e"] ;
96 -> 214 ;
215 [label="x[6] <= 0.5\ngini = 0.231\nsamples = 7\nvalue = [[0, 7]\n[1, 6]\n[1, 6]\n[3, 4]\n[5, 2]\n[7, 0]]", fillcolor="#f2c09c"] ;
214 -> 215 ;
216 [label="x[12] <= 61.5\ngini = 0.25\nsamples = 4\nvalue = [[0, 4]\n[1, 3]\n[1, 3]\n[3, 1]\n[3, 1]\n[4, 0]]", fillcolor="#f3c5a4"] ;
215 -> 216 ;
217 [label="x[12] <= 59.0\ngini = 0.148\nsamples = 3\nvalue = [[0, 3]\n[1, 2]\n[1, 2]\n[3, 0]\n[3, 0]\n[3, 0]]", fillcolor="#eda979"] ;
216 -> 217 ;
218 [label="gini = 0.0\nsamples = 1\nvalue = [[0, 1]\n[0, 1]\n[0, 1]\n[1, 0]\n[1, 0]\n[1, 0]]", fillcolor="#e58139"] ;
217 -> 218 ;
219 [label="x[12] <= 60.5\ngini = 0.167\nsamples = 2\nvalue = [[0, 2]\n[1, 1]\n[1, 1]\n[2, 0]\n[2, 0]\n[2, 0]]", fillcolor="#eeaf81"] ;
217 -> 219 ;
220 [label="gini = 0.0\nsamples = 1\nvalue = [[0, 1]\n[1, 0]\n[1, 0]\n[1, 0]\n[1, 0]\n[1, 0]]", fillcolor="#e58139"] ;
219 -> 220 ;
221 [label="gini = 0.0\nsamples = 1\nvalue = [[0, 1]\n[0, 1]\n[0, 1]\n[1, 0]\n[1, 0]\n[1, 0]]", fillcolor="#e58139"] ;
219 -> 221 ;
222 [label="gini = 0.0\nsamples = 1\nvalue = [[0, 1]\n[0, 1]\n[0, 1]\n[0, 1]\n[0, 1]\n[1, 0]]", fillcolor="#e58139"] ;
216 -> 222 ;
223 [label="x[12] <= 58.5\ngini = 0.074\nsamples = 3\nvalue = [[0, 3]\n[0, 3]\n[0, 3]\n[0, 3]\n[2, 1]\n[3, 0]]", fillcolor="#e99559"] ;
215 -> 223 ;
224 [label="gini = 0.0\nsamples = 2\nvalue = [[0, 2]\n[0, 2]\n[0, 2]\n[0, 2]\n[2, 0]\n[2, 0]]", fillcolor="#e58139"] ;
223 -> 224 ;
225 [label="gini = 0.0\nsamples = 1\nvalue = [[0, 1]\n[0, 1]\n[0, 1]\n[0, 1]\n[0, 1]\n[1, 0]]", fillcolor="#e58139"] ;
223 -> 225 ;
226 [label="x[12] <= 61.5\ngini = 0.07\nsamples = 22\nvalue = [[0, 22]\n[0, 22]\n[2, 20]\n[0, 22]\n[1, 21]\n[2, 20]]", fillcolor="#e99457"] ;
214 -> 226 ;
227 [label="x[4] <= 0.5\ngini = 0.059\nsamples = 21\nvalue = [[0, 21]\n[0, 21]\n[2, 19]\n[0, 21]\n[1, 20]\n[1, 20]]", fillcolor="#e89152"] ;
226 -> 227 ;
228 [label="x[12] <= 59.5\ngini = 0.055\nsamples = 11\nvalue = [[0, 11]\n[0, 11]\n[0, 11]\n[0, 11]\n[1, 10]\n[1, 10]]", fillcolor="#e89051"] ;
227 -> 228 ;
229 [label="gini = 0.0\nsamples = 5\nvalue = [[0, 5]\n[0, 5]\n[0, 5]\n[0, 5]\n[0, 5]\n[0, 5]]", fillcolor="#e58139"] ;
228 -> 229 ;
230 [label="x[2] <= 0.5\ngini = 0.093\nsamples = 6\nvalue = [[0, 6]\n[0, 6]\n[0, 6]\n[0, 6]\n[1, 5]\n[1, 5]]", fillcolor="#ea9a61"] ;
228 -> 230 ;
231 [label="x[13] <= 0.5\ngini = 0.148\nsamples = 3\nvalue = [[0, 3]\n[0, 3]\n[0, 3]\n[0, 3]\n[1, 2]\n[1, 2]]", fillcolor="#eda979"] ;
230 -> 231 ;
232 [label="x[14] <= 3.5\ngini = 0.167\nsamples = 2\nvalue = [[0, 2]\n[0, 2]\n[0, 2]\n[0, 2]\n[1, 1]\n[1, 1]]", fillcolor="#eeaf81"] ;
231 -> 232 ;
233 [label="gini = 0.0\nsamples = 1\nvalue = [[0, 1]\n[0, 1]\n[0, 1]\n[0, 1]\n[0, 1]\n[0, 1]]", fillcolor="#e58139"] ;
232 -> 233 ;
234 [label="gini = 0.0\nsamples = 1\nvalue = [[0, 1]\n[0, 1]\n[0, 1]\n[0, 1]\n[1, 0]\n[1, 0]]", fillcolor="#e58139"] ;
232 -> 234 ;
235 [label="gini = 0.0\nsamples = 1\nvalue = [[0, 1]\n[0, 1]\n[0, 1]\n[0, 1]\n[0, 1]\n[0, 1]]", fillcolor="#e58139"] ;
231 -> 235 ;
236 [label="gini = 0.0\nsamples = 3\nvalue = [[0, 3]\n[0, 3]\n[0, 3]\n[0, 3]\n[0, 3]\n[0, 3]]", fillcolor="#e58139"] ;
230 -> 236 ;
237 [label="x[5] <= 0.5\ngini = 0.053\nsamples = 10\nvalue = [[0, 10]\n[0, 10]\n[2, 8]\n[0, 10]\n[0, 10]\n[0, 10]]", fillcolor="#e89050"] ;
227 -> 237 ;
238 [label="x[0] <= 0.5\ngini = 0.074\nsamples = 3\nvalue = [[0, 3]\n[0, 3]\n[2, 1]\n[0, 3]\n[0, 3]\n[0, 3]]", fillcolor="#e99559"] ;
237 -> 238 ;
239 [label="gini = 0.0\nsamples = 1\nvalue = [[0, 1]\n[0, 1]\n[1, 0]\n[0, 1]\n[0, 1]\n[0, 1]]", fillcolor="#e58139"] ;
238 -> 239 ;
240 [label="x[14] <= 3.5\ngini = 0.083\nsamples = 2\nvalue = [[0, 2]\n[0, 2]\n[1, 1]\n[0, 2]\n[0, 2]\n[0, 2]]", fillcolor="#ea985d"] ;
238 -> 240 ;
241 [label="gini = 0.0\nsamples = 1\nvalue = [[0, 1]\n[0, 1]\n[1, 0]\n[0, 1]\n[0, 1]\n[0, 1]]", fillcolor="#e58139"] ;
240 -> 241 ;
242 [label="gini = 0.0\nsamples = 1\nvalue = [[0, 1]\n[0, 1]\n[0, 1]\n[0, 1]\n[0, 1]\n[0, 1]]", fillcolor="#e58139"] ;
240 -> 242 ;
243 [label="gini = 0.0\nsamples = 7\nvalue = [[0, 7]\n[0, 7]\n[0, 7]\n[0, 7]\n[0, 7]\n[0, 7]]", fillcolor="#e58139"] ;
237 -> 243 ;
244 [label="gini = 0.0\nsamples = 1\nvalue = [[0, 1]\n[0, 1]\n[0, 1]\n[0, 1]\n[0, 1]\n[1, 0]]", fillcolor="#e58139"] ;
226 -> 244 ;
245 [label="x[1] <= 0.5\ngini = 0.258\nsamples = 111\nvalue = [[0, 111]\n[2, 109]\n[12, 99]\n[26, 85]\n[41, 70]\n[60, 51]]", fillcolor="#f4c8a8"] ;
5 -> 245 ;
246 [label="x[4] <= 0.5\ngini = 0.281\nsamples = 62\nvalue = [[0, 62]\n[2, 60]\n[9, 53]\n[18, 44]\n[27, 35]\n[38, 24]]", fillcolor="#f5ceb2"] ;
245 -> 246 ;
247 [label="x[9] <= 0.5\ngini = 0.28\nsamples = 41\nvalue = [[0, 41]\n[2, 39]\n[7, 34]\n[9, 32]\n[15, 26]\n[21, 20]]", fillcolor="#f5ceb1"] ;
246 -> 247 ;
248 [label="x[12] <= 64.5\ngini = 0.266\nsamples = 39\nvalue = [[0, 39]\n[2, 37]\n[6, 33]\n[7, 32]\n[13, 26]\n[19, 20]]", fillcolor="#f4caab"] ;
247 -> 248 ;
249 [label="x[0] <= 0.5\ngini = 0.296\nsamples = 3\nvalue = [[0, 3]\n[1, 2]\n[1, 2]\n[1, 2]\n[2, 1]\n[3, 0]]", fillcolor="#f6d2b8"] ;
248 -> 249 ;
250 [label="x[14] <= 1.5\ngini = 0.25\nsamples = 2\nvalue = [[0, 2]\n[1, 1]\n[1, 1]\n[1, 1]\n[2, 0]\n[2, 0]]", fillcolor="#f3c5a4"] ;
249 -> 250 ;
251 [label="gini = 0.0\nsamples = 1\nvalue = [[0, 1]\n[0, 1]\n[0, 1]\n[0, 1]\n[1, 0]\n[1, 0]]", fillcolor="#e58139"] ;
250 -> 251 ;
252 [label="gini = 0.0\nsamples = 1\nvalue = [[0, 1]\n[1, 0]\n[1, 0]\n[1, 0]\n[1, 0]\n[1, 0]]", fillcolor="#e58139"] ;
250 -> 252 ;
253 [label="gini = 0.0\nsamples = 1\nvalue = [[0, 1]\n[0, 1]\n[0, 1]\n[0, 1]\n[0, 1]\n[1, 0]]", fillcolor="#e58139"] ;
249 -> 253 ;
254 [label="x[14] <= 0.5\ngini = 0.248\nsamples = 36\nvalue = [[0, 36]\n[1, 35]\n[5, 31]\n[6, 30]\n[11, 25]\n[16, 20]]", fillcolor="#f3c5a4"] ;
248 -> 254 ;
255 [label="gini = 0.0\nsamples = 4\nvalue = [[0, 4]\n[0, 4]\n[0, 4]\n[0, 4]\n[0, 4]\n[0, 4]]", fillcolor="#e58139"] ;
254 -> 255 ;
256 [label="x[12] <= 78.5\ngini = 0.263\nsamples = 32\nvalue = [[0, 32]\n[1, 31]\n[5, 27]\n[6, 26]\n[11, 21]\n[16, 16]]", fillcolor="#f4c9aa"] ;
254 -> 256 ;
257 [label="x[12] <= 75.5\ngini = 0.184\nsamples = 20\nvalue = [[0, 20]\n[0, 20]\n[1, 19]\n[1, 19]\n[6, 14]\n[11, 9]]", fillcolor="#efb388"] ;
256 -> 257 ;
258 [label="x[13] <= 0.5\ngini = 0.175\nsamples = 15\nvalue = [[0, 15]\n[0, 15]\n[1, 14]\n[1, 14]\n[3, 12]\n[6, 9]]", fillcolor="#efb184"] ;
257 -> 258 ;
259 [label="x[12] <= 69.0\ngini = 0.053\nsamples = 5\nvalue = [[0, 5]\n[0, 5]\n[0, 5]\n[0, 5]\n[0, 5]\n[1, 4]]", fillcolor="#e89050"] ;
258 -> 259 ;
260 [label="x[12] <= 66.0\ngini = 0.083\nsamples = 2\nvalue = [[0, 2]\n[0, 2]\n[0, 2]\n[0, 2]\n[0, 2]\n[1, 1]]", fillcolor="#ea985d"] ;
259 -> 260 ;
261 [label="gini = 0.0\nsamples = 1\nvalue = [[0, 1]\n[0, 1]\n[0, 1]\n[0, 1]\n[0, 1]\n[0, 1]]", fillcolor="#e58139"] ;
260 -> 261 ;
262 [label="gini = 0.0\nsamples = 1\nvalue = [[0, 1]\n[0, 1]\n[0, 1]\n[0, 1]\n[0, 1]\n[1, 0]]", fillcolor="#e58139"] ;
260 -> 262 ;
263 [label="gini = 0.0\nsamples = 3\nvalue = [[0, 3]\n[0, 3]\n[0, 3]\n[0, 3]\n[0, 3]\n[0, 3]]", fillcolor="#e58139"] ;
259 -> 263 ;
264 [label="x[14] <= 5.5\ngini = 0.213\nsamples = 10\nvalue = [[0, 10]\n[0, 10]\n[1, 9]\n[1, 9]\n[3, 7]\n[5, 5]]", fillcolor="#f1bb95"] ;
258 -> 264 ;
265 [label="x[12] <= 72.0\ngini = 0.25\nsamples = 6\nvalue = [[0, 6]\n[0, 6]\n[1, 5]\n[1, 5]\n[3, 3]\n[4, 2]]", fillcolor="#f3c5a4"] ;
264 -> 265 ;
266 [label="x[12] <= 68.5\ngini = 0.148\nsamples = 3\nvalue = [[0, 3]\n[0, 3]\n[0, 3]\n[0, 3]\n[1, 2]\n[2, 1]]", fillcolor="#eda979"] ;
265 -> 266 ;
267 [label="gini = 0.167\nsamples = 2\nvalue = [[0, 2]\n[0, 2]\n[0, 2]\n[0, 2]\n[1, 1]\n[1, 1]]", fillcolor="#eeaf81"] ;
266 -> 267 ;
268 [label="gini = 0.0\nsamples = 1\nvalue = [[0, 1]\n[0, 1]\n[0, 1]\n[0, 1]\n[0, 1]\n[1, 0]]", fillcolor="#e58139"] ;
266 -> 268 ;
269 [label="gini = 0.296\nsamples = 3\nvalue = [[0, 3]\n[0, 3]\n[1, 2]\n[1, 2]\n[2, 1]\n[2, 1]]", fillcolor="#f6d2b8"] ;
265 -> 269 ;
270 [label="x[12] <= 67.0\ngini = 0.062\nsamples = 4\nvalue = [[0, 4]\n[0, 4]\n[0, 4]\n[0, 4]\n[0, 4]\n[1, 3]]", fillcolor="#e99254"] ;
264 -> 270 ;
271 [label="gini = 0.083\nsamples = 2\nvalue = [[0, 2]\n[0, 2]\n[0, 2]\n[0, 2]\n[0, 2]\n[1, 1]]", fillcolor="#ea985d"] ;
270 -> 271 ;
272 [label="gini = 0.0\nsamples = 2\nvalue = [[0, 2]\n[0, 2]\n[0, 2]\n[0, 2]\n[0, 2]\n[0, 2]]", fillcolor="#e58139"] ;
270 -> 272 ;
273 [label="x[12] <= 76.5\ngini = 0.08\nsamples = 5\nvalue = [[0, 5]\n[0, 5]\n[0, 5]\n[0, 5]\n[3, 2]\n[5, 0]]", fillcolor="#ea975b"] ;
257 -> 273 ;
274 [label="x[14] <= 3.0\ngini = 0.074\nsamples = 3\nvalue = [[0, 3]\n[0, 3]\n[0, 3]\n[0, 3]\n[1, 2]\n[3, 0]]", fillcolor="#e99559"] ;
273 -> 274 ;
275 [label="gini = 0.0\nsamples = 1\nvalue = [[0, 1]\n[0, 1]\n[0, 1]\n[0, 1]\n[0, 1]\n[1, 0]]", fillcolor="#e58139"] ;
274 -> 275 ;
276 [label="gini = 0.083\nsamples = 2\nvalue = [[0, 2]\n[0, 2]\n[0, 2]\n[0, 2]\n[1, 1]\n[2, 0]]", fillcolor="#ea985d"] ;
274 -> 276 ;
277 [label="gini = 0.0\nsamples = 2\nvalue = [[0, 2]\n[0, 2]\n[0, 2]\n[0, 2]\n[2, 0]\n[2, 0]]", fillcolor="#e58139"] ;
273 -> 277 ;
278 [label="x[12] <= 86.5\ngini = 0.343\nsamples = 12\nvalue = [[0, 12]\n[1, 11]\n[4, 8]\n[5, 7]\n[5, 7]\n[5, 7]]", fillcolor="#f8dfcc"] ;
256 -> 278 ;
279 [label="x[12] <= 84.5\ngini = 0.36\nsamples = 10\nvalue = [[0, 10]\n[1, 9]\n[4, 6]\n[5, 5]\n[5, 5]\n[5, 5]]", fillcolor="#f9e3d4"] ;
278 -> 279 ;
280 [label="x[0] <= 0.5\ngini = 0.349\nsamples = 8\nvalue = [[0, 8]\n[1, 7]\n[3, 5]\n[3, 5]\n[3, 5]\n[3, 5]]", fillcolor="#f9e0cf"] ;
279 -> 280 ;
281 [label="x[12] <= 79.5\ngini = 0.324\nsamples = 6\nvalue = [[0, 6]\n[0, 6]\n[2, 4]\n[3, 3]\n[3, 3]\n[3, 3]]", fillcolor="#f7dac4"] ;
280 -> 281 ;
282 [label="x[14] <= 1.5\ngini = 0.296\nsamples = 3\nvalue = [[0, 3]\n[0, 3]\n[2, 1]\n[2, 1]\n[2, 1]\n[2, 1]]", fillcolor="#f6d2b8"] ;
281 -> 282 ;
283 [label="gini = 0.0\nsamples = 1\nvalue = [[0, 1]\n[0, 1]\n[1, 0]\n[1, 0]\n[1, 0]\n[1, 0]]", fillcolor="#e58139"] ;
282 -> 283 ;
284 [label="gini = 0.333\nsamples = 2\nvalue = [[0, 2]\n[0, 2]\n[1, 1]\n[1, 1]\n[1, 1]\n[1, 1]]", fillcolor="#f8dcc8"] ;
282 -> 284 ;
285 [label="x[14] <= 2.5\ngini = 0.222\nsamples = 3\nvalue = [[0, 3]\n[0, 3]\n[0, 3]\n[1, 2]\n[1, 2]\n[1, 2]]", fillcolor="#f2be98"] ;
281 -> 285 ;
286 [label="gini = 0.0\nsamples = 2\nvalue = [[0, 2]\n[0, 2]\n[0, 2]\n[0, 2]\n[0, 2]\n[0, 2]]", fillcolor="#e58139"] ;
285 -> 286 ;
287 [label="gini = 0.0\nsamples = 1\nvalue = [[0, 1]\n[0, 1]\n[0, 1]\n[1, 0]\n[1, 0]\n[1, 0]]", fillcolor="#e58139"] ;
285 -> 287 ;
288 [label="x[12] <= 81.0\ngini = 0.167\nsamples = 2\nvalue = [[0, 2]\n[1, 1]\n[1, 1]\n[0, 2]\n[0, 2]\n[0, 2]]", fillcolor="#eeaf81"] ;
280 -> 288 ;
289 [label="gini = 0.0\nsamples = 1\nvalue = [[0, 1]\n[0, 1]\n[0, 1]\n[0, 1]\n[0, 1]\n[0, 1]]", fillcolor="#e58139"] ;
288 -> 289 ;
290 [label="gini = 0.0\nsamples = 1\nvalue = [[0, 1]\n[1, 0]\n[1, 0]\n[0, 1]\n[0, 1]\n[0, 1]]", fillcolor="#e58139"] ;
288 -> 290 ;
291 [label="x[12] <= 85.5\ngini = 0.083\nsamples = 2\nvalue = [[0, 2]\n[0, 2]\n[1, 1]\n[2, 0]\n[2, 0]\n[2, 0]]", fillcolor="#ea985d"] ;
279 -> 291 ;
292 [label="gini = 0.0\nsamples = 1\nvalue = [[0, 1]\n[0, 1]\n[1, 0]\n[1, 0]\n[1, 0]\n[1, 0]]", fillcolor="#e58139"] ;
291 -> 292 ;
293 [label="gini = 0.0\nsamples = 1\nvalue = [[0, 1]\n[0, 1]\n[0, 1]\n[1, 0]\n[1, 0]\n[1, 0]]", fillcolor="#e58139"] ;
291 -> 293 ;
294 [label="gini = 0.0\nsamples = 2\nvalue = [[0, 2]\n[0, 2]\n[0, 2]\n[0, 2]\n[0, 2]\n[0, 2]]", fillcolor="#e58139"] ;
278 -> 294 ;
295 [label="x[14] <= 3.0\ngini = 0.083\nsamples = 2\nvalue = [[0, 2]\n[0, 2]\n[1, 1]\n[2, 0]\n[2, 0]\n[2, 0]]", fillcolor="#ea985d"] ;
247 -> 295 ;
296 [label="gini = 0.0\nsamples = 1\nvalue = [[0, 1]\n[0, 1]\n[1, 0]\n[1, 0]\n[1, 0]\n[1, 0]]", fillcolor="#e58139"] ;
295 -> 296 ;
297 [label="gini = 0.0\nsamples = 1\nvalue = [[0, 1]\n[0, 1]\n[0, 1]\n[1, 0]\n[1, 0]\n[1, 0]]", fillcolor="#e58139"] ;
295 -> 297 ;
298 [label="x[7] <= 0.5\ngini = 0.243\nsamples = 21\nvalue = [[0, 21]\n[0, 21]\n[2, 19]\n[9, 12]\n[12, 9]\n[17, 4]]", fillcolor="#f3c4a2"] ;
246 -> 298 ;
299 [label="x[12] <= 73.5\ngini = 0.149\nsamples = 11\nvalue = [[0, 11]\n[0, 11]\n[0, 11]\n[5, 6]\n[8, 3]\n[11, 0]]", fillcolor="#edaa79"] ;
298 -> 299 ;
300 [label="x[12] <= 71.0\ngini = 0.083\nsamples = 4\nvalue = [[0, 4]\n[0, 4]\n[0, 4]\n[0, 4]\n[2, 2]\n[4, 0]]", fillcolor="#ea985d"] ;
299 -> 300 ;
301 [label="gini = 0.0\nsamples = 2\nvalue = [[0, 2]\n[0, 2]\n[0, 2]\n[0, 2]\n[2, 0]\n[2, 0]]", fillcolor="#e58139"] ;
300 -> 301 ;
302 [label="gini = 0.0\nsamples = 2\nvalue = [[0, 2]\n[0, 2]\n[0, 2]\n[0, 2]\n[0, 2]\n[2, 0]]", fillcolor="#e58139"] ;
300 -> 302 ;
303 [label="x[14] <= 1.0\ngini = 0.109\nsamples = 7\nvalue = [[0, 7]\n[0, 7]\n[0, 7]\n[5, 2]\n[6, 1]\n[7, 0]]", fillcolor="#eb9f68"] ;
299 -> 303 ;
304 [label="gini = 0.0\nsamples = 1\nvalue = [[0, 1]\n[0, 1]\n[0, 1]\n[0, 1]\n[1, 0]\n[1, 0]]", fillcolor="#e58139"] ;
303 -> 304 ;
305 [label="x[2] <= 0.5\ngini = 0.093\nsamples = 6\nvalue = [[0, 6]\n[0, 6]\n[0, 6]\n[5, 1]\n[5, 1]\n[6, 0]]", fillcolor="#ea9a61"] ;
303 -> 305 ;
306 [label="gini = 0.0\nsamples = 3\nvalue = [[0, 3]\n[0, 3]\n[0, 3]\n[3, 0]\n[3, 0]\n[3, 0]]", fillcolor="#e58139"] ;
305 -> 306 ;
307 [label="x[13] <= 0.5\ngini = 0.148\nsamples = 3\nvalue = [[0, 3]\n[0, 3]\n[0, 3]\n[2, 1]\n[2, 1]\n[3, 0]]", fillcolor="#eda979"] ;
305 -> 307 ;
308 [label="gini = 0.0\nsamples = 2\nvalue = [[0, 2]\n[0, 2]\n[0, 2]\n[2, 0]\n[2, 0]\n[2, 0]]", fillcolor="#e58139"] ;
307 -> 308 ;
309 [label="gini = 0.0\nsamples = 1\nvalue = [[0, 1]\n[0, 1]\n[0, 1]\n[0, 1]\n[0, 1]\n[1, 0]]", fillcolor="#e58139"] ;
307 -> 309 ;
310 [label="x[12] <= 66.5\ngini = 0.293\nsamples = 10\nvalue = [[0, 10]\n[0, 10]\n[2, 8]\n[4, 6]\n[4, 6]\n[6, 4]]", fillcolor="#f6d1b7"] ;
298 -> 310 ;
311 [label="x[2] <= 0.5\ngini = 0.148\nsamples = 3\nvalue = [[0, 3]\n[0, 3]\n[0, 3]\n[2, 1]\n[2, 1]\n[3, 0]]", fillcolor="#eda979"] ;
310 -> 311 ;
312 [label="gini = 0.167\nsamples = 2\nvalue = [[0, 2]\n[0, 2]\n[0, 2]\n[1, 1]\n[1, 1]\n[2, 0]]", fillcolor="#eeaf81"] ;
311 -> 312 ;
313 [label="gini = 0.0\nsamples = 1\nvalue = [[0, 1]\n[0, 1]\n[0, 1]\n[1, 0]\n[1, 0]\n[1, 0]]", fillcolor="#e58139"] ;
311 -> 313 ;
314 [label="x[12] <= 75.5\ngini = 0.286\nsamples = 7\nvalue = [[0, 7]\n[0, 7]\n[2, 5]\n[2, 5]\n[2, 5]\n[3, 4]]", fillcolor="#f5cfb4"] ;
310 -> 314 ;
315 [label="gini = 0.0\nsamples = 3\nvalue = [[0, 3]\n[0, 3]\n[0, 3]\n[0, 3]\n[0, 3]\n[0, 3]]", fillcolor="#e58139"] ;
314 -> 315 ;
316 [label="x[12] <= 80.5\ngini = 0.312\nsamples = 4\nvalue = [[0, 4]\n[0, 4]\n[2, 2]\n[2, 2]\n[2, 2]\n[3, 1]]", fillcolor="#f7d6bf"] ;
314 -> 316 ;
317 [label="x[8] <= 0.5\ngini = 0.083\nsamples = 2\nvalue = [[0, 2]\n[0, 2]\n[1, 1]\n[2, 0]\n[2, 0]\n[2, 0]]", fillcolor="#ea985d"] ;
316 -> 317 ;
318 [label="gini = 0.0\nsamples = 1\nvalue = [[0, 1]\n[0, 1]\n[1, 0]\n[1, 0]\n[1, 0]\n[1, 0]]", fillcolor="#e58139"] ;
317 -> 318 ;
319 [label="gini = 0.0\nsamples = 1\nvalue = [[0, 1]\n[0, 1]\n[0, 1]\n[1, 0]\n[1, 0]\n[1, 0]]", fillcolor="#e58139"] ;
317 -> 319 ;
320 [label="x[12] <= 84.5\ngini = 0.167\nsamples = 2\nvalue = [[0, 2]\n[0, 2]\n[1, 1]\n[0, 2]\n[0, 2]\n[1, 1]]", fillcolor="#eeaf81"] ;
316 -> 320 ;
321 [label="gini = 0.0\nsamples = 1\nvalue = [[0, 1]\n[0, 1]\n[1, 0]\n[0, 1]\n[0, 1]\n[0, 1]]", fillcolor="#e58139"] ;
320 -> 321 ;
322 [label="gini = 0.0\nsamples = 1\nvalue = [[0, 1]\n[0, 1]\n[0, 1]\n[0, 1]\n[0, 1]\n[1, 0]]", fillcolor="#e58139"] ;
320 -> 322 ;
323 [label="x[6] <= 0.5\ngini = 0.215\nsamples = 49\nvalue = [[0, 49]\n[0, 49]\n[3, 46]\n[8, 41]\n[14, 35]\n[22, 27]]", fillcolor="#f1bc95"] ;
245 -> 323 ;
324 [label="x[12] <= 65.0\ngini = 0.22\nsamples = 25\nvalue = [[0, 25]\n[0, 25]\n[1, 24]\n[5, 20]\n[9, 16]\n[16, 9]]", fillcolor="#f1bd97"] ;
323 -> 324 ;
325 [label="x[5] <= 0.5\ngini = 0.083\nsamples = 2\nvalue = [[0, 2]\n[0, 2]\n[0, 2]\n[2, 0]\n[2, 0]\n[1, 1]]", fillcolor="#ea985d"] ;
324 -> 325 ;
326 [label="gini = 0.0\nsamples = 1\nvalue = [[0, 1]\n[0, 1]\n[0, 1]\n[1, 0]\n[1, 0]\n[1, 0]]", fillcolor="#e58139"] ;
325 -> 326 ;
327 [label="gini = 0.0\nsamples = 1\nvalue = [[0, 1]\n[0, 1]\n[0, 1]\n[1, 0]\n[1, 0]\n[0, 1]]", fillcolor="#e58139"] ;
325 -> 327 ;
328 [label="x[12] <= 79.5\ngini = 0.198\nsamples = 23\nvalue = [[0, 23]\n[0, 23]\n[1, 22]\n[3, 20]\n[7, 16]\n[15, 8]]", fillcolor="#f0b78e"] ;
324 -> 328 ;
329 [label="x[12] <= 74.5\ngini = 0.104\nsamples = 14\nvalue = [[0, 14]\n[0, 14]\n[0, 14]\n[0, 14]\n[1, 13]\n[8, 6]]", fillcolor="#eb9d66"] ;
328 -> 329 ;
330 [label="x[12] <= 66.5\ngini = 0.109\nsamples = 7\nvalue = [[0, 7]\n[0, 7]\n[0, 7]\n[0, 7]\n[1, 6]\n[2, 5]]", fillcolor="#eb9f68"] ;
329 -> 330 ;
331 [label="gini = 0.0\nsamples = 1\nvalue = [[0, 1]\n[0, 1]\n[0, 1]\n[0, 1]\n[0, 1]\n[1, 0]]", fillcolor="#e58139"] ;
330 -> 331 ;
332 [label="x[14] <= 2.5\ngini = 0.093\nsamples = 6\nvalue = [[0, 6]\n[0, 6]\n[0, 6]\n[0, 6]\n[1, 5]\n[1, 5]]", fillcolor="#ea9a61"] ;
330 -> 332 ;
333 [label="x[2] <= 0.5\ngini = 0.148\nsamples = 3\nvalue = [[0, 3]\n[0, 3]\n[0, 3]\n[0, 3]\n[1, 2]\n[1, 2]]", fillcolor="#eda979"] ;
332 -> 333 ;
334 [label="gini = 0.0\nsamples = 1\nvalue = [[0, 1]\n[0, 1]\n[0, 1]\n[0, 1]\n[0, 1]\n[0, 1]]", fillcolor="#e58139"] ;
333 -> 334 ;
335 [label="x[4] <= 0.5\ngini = 0.167\nsamples = 2\nvalue = [[0, 2]\n[0, 2]\n[0, 2]\n[0, 2]\n[1, 1]\n[1, 1]]", fillcolor="#eeaf81"] ;
333 -> 335 ;
336 [label="gini = 0.0\nsamples = 1\nvalue = [[0, 1]\n[0, 1]\n[0, 1]\n[0, 1]\n[1, 0]\n[1, 0]]", fillcolor="#e58139"] ;
335 -> 336 ;
337 [label="gini = 0.0\nsamples = 1\nvalue = [[0, 1]\n[0, 1]\n[0, 1]\n[0, 1]\n[0, 1]\n[0, 1]]", fillcolor="#e58139"] ;
335 -> 337 ;
338 [label="gini = 0.0\nsamples = 3\nvalue = [[0, 3]\n[0, 3]\n[0, 3]\n[0, 3]\n[0, 3]\n[0, 3]]", fillcolor="#e58139"] ;
332 -> 338 ;
339 [label="x[12] <= 78.0\ngini = 0.041\nsamples = 7\nvalue = [[0, 7]\n[0, 7]\n[0, 7]\n[0, 7]\n[0, 7]\n[6, 1]]", fillcolor="#e78c4b"] ;
329 -> 339 ;
340 [label="gini = 0.0\nsamples = 6\nvalue = [[0, 6]\n[0, 6]\n[0, 6]\n[0, 6]\n[0, 6]\n[6, 0]]", fillcolor="#e58139"] ;
339 -> 340 ;
341 [label="gini = 0.0\nsamples = 1\nvalue = [[0, 1]\n[0, 1]\n[0, 1]\n[0, 1]\n[0, 1]\n[0, 1]]", fillcolor="#e58139"] ;
339 -> 341 ;
342 [label="x[12] <= 84.5\ngini = 0.239\nsamples = 9\nvalue = [[0, 9]\n[0, 9]\n[1, 8]\n[3, 6]\n[6, 3]\n[7, 2]]", fillcolor="#f2c29f"] ;
328 -> 342 ;
343 [label="x[5] <= 0.5\ngini = 0.125\nsamples = 4\nvalue = [[0, 4]\n[0, 4]\n[1, 3]\n[3, 1]\n[4, 0]\n[4, 0]]", fillcolor="#eca36f"] ;
342 -> 343 ;
344 [label="x[3] <= 0.5\ngini = 0.074\nsamples = 3\nvalue = [[0, 3]\n[0, 3]\n[0, 3]\n[2, 1]\n[3, 0]\n[3, 0]]", fillcolor="#e99559"] ;
343 -> 344 ;
345 [label="gini = 0.0\nsamples = 2\nvalue = [[0, 2]\n[0, 2]\n[0, 2]\n[2, 0]\n[2, 0]\n[2, 0]]", fillcolor="#e58139"] ;
344 -> 345 ;
346 [label="gini = 0.0\nsamples = 1\nvalue = [[0, 1]\n[0, 1]\n[0, 1]\n[0, 1]\n[1, 0]\n[1, 0]]", fillcolor="#e58139"] ;
344 -> 346 ;
347 [label="gini = 0.0\nsamples = 1\nvalue = [[0, 1]\n[0, 1]\n[1, 0]\n[1, 0]\n[1, 0]\n[1, 0]]", fillcolor="#e58139"] ;
343 -> 347 ;
348 [label="x[14] <= 4.5\ngini = 0.16\nsamples = 5\nvalue = [[0, 5]\n[0, 5]\n[0, 5]\n[0, 5]\n[2, 3]\n[3, 2]]", fillcolor="#eead7e"] ;
342 -> 348 ;
349 [label="x[8] <= 0.5\ngini = 0.074\nsamples = 3\nvalue = [[0, 3]\n[0, 3]\n[0, 3]\n[0, 3]\n[2, 1]\n[3, 0]]", fillcolor="#e99559"] ;
348 -> 349 ;
350 [label="gini = 0.0\nsamples = 2\nvalue = [[0, 2]\n[0, 2]\n[0, 2]\n[0, 2]\n[2, 0]\n[2, 0]]", fillcolor="#e58139"] ;
349 -> 350 ;
351 [label="gini = 0.0\nsamples = 1\nvalue = [[0, 1]\n[0, 1]\n[0, 1]\n[0, 1]\n[0, 1]\n[1, 0]]", fillcolor="#e58139"] ;
349 -> 351 ;
352 [label="gini = 0.0\nsamples = 2\nvalue = [[0, 2]\n[0, 2]\n[0, 2]\n[0, 2]\n[0, 2]\n[0, 2]]", fillcolor="#e58139"] ;
348 -> 352 ;
353 [label="x[0] <= 0.5\ngini = 0.179\nsamples = 24\nvalue = [[0, 24]\n[0, 24]\n[2, 22]\n[3, 21]\n[5, 19]\n[6, 18]]", fillcolor="#efb286"] ;
323 -> 353 ;
354 [label="gini = 0.0\nsamples = 1\nvalue = [[0, 1]\n[0, 1]\n[0, 1]\n[0, 1]\n[1, 0]\n[1, 0]]", fillcolor="#e58139"] ;
353 -> 354 ;
355 [label="x[14] <= 0.5\ngini = 0.169\nsamples = 23\nvalue = [[0, 23]\n[0, 23]\n[2, 21]\n[3, 20]\n[4, 19]\n[5, 18]]", fillcolor="#efaf82"] ;
353 -> 355 ;
356 [label="x[8] <= 0.5\ngini = 0.24\nsamples = 5\nvalue = [[0, 5]\n[0, 5]\n[0, 5]\n[2, 3]\n[2, 3]\n[2, 3]]", fillcolor="#f3c3a0"] ;
355 -> 356 ;
357 [label="x[12] <= 76.5\ngini = 0.188\nsamples = 4\nvalue = [[0, 4]\n[0, 4]\n[0, 4]\n[1, 3]\n[1, 3]\n[1, 3]]", fillcolor="#f0b48a"] ;
356 -> 357 ;
358 [label="gini = 0.0\nsamples = 2\nvalue = [[0, 2]\n[0, 2]\n[0, 2]\n[0, 2]\n[0, 2]\n[0, 2]]", fillcolor="#e58139"] ;
357 -> 358 ;
359 [label="gini = 0.25\nsamples = 2\nvalue = [[0, 2]\n[0, 2]\n[0, 2]\n[1, 1]\n[1, 1]\n[1, 1]]", fillcolor="#f3c5a4"] ;
357 -> 359 ;
360 [label="gini = 0.0\nsamples = 1\nvalue = [[0, 1]\n[0, 1]\n[0, 1]\n[1, 0]\n[1, 0]\n[1, 0]]", fillcolor="#e58139"] ;
356 -> 360 ;
361 [label="x[8] <= 0.5\ngini = 0.13\nsamples = 18\nvalue = [[0, 18]\n[0, 18]\n[2, 16]\n[1, 17]\n[2, 16]\n[3, 15]]", fillcolor="#eca471"] ;
355 -> 361 ;
362 [label="x[12] <= 65.5\ngini = 0.062\nsamples = 8\nvalue = [[0, 8]\n[0, 8]\n[0, 8]\n[0, 8]\n[0, 8]\n[2, 6]]", fillcolor="#e99254"] ;
361 -> 362 ;
363 [label="gini = 0.0\nsamples = 1\nvalue = [[0, 1]\n[0, 1]\n[0, 1]\n[0, 1]\n[0, 1]\n[1, 0]]", fillcolor="#e58139"] ;
362 -> 363 ;
364 [label="x[13] <= 0.5\ngini = 0.041\nsamples = 7\nvalue = [[0, 7]\n[0, 7]\n[0, 7]\n[0, 7]\n[0, 7]\n[1, 6]]", fillcolor="#e78c4b"] ;
362 -> 364 ;
365 [label="gini = 0.0\nsamples = 5\nvalue = [[0, 5]\n[0, 5]\n[0, 5]\n[0, 5]\n[0, 5]\n[0, 5]]", fillcolor="#e58139"] ;
364 -> 365 ;
366 [label="x[12] <= 74.0\ngini = 0.083\nsamples = 2\nvalue = [[0, 2]\n[0, 2]\n[0, 2]\n[0, 2]\n[0, 2]\n[1, 1]]", fillcolor="#ea985d"] ;
364 -> 366 ;
367 [label="gini = 0.0\nsamples = 1\nvalue = [[0, 1]\n[0, 1]\n[0, 1]\n[0, 1]\n[0, 1]\n[0, 1]]", fillcolor="#e58139"] ;
366 -> 367 ;
368 [label="gini = 0.0\nsamples = 1\nvalue = [[0, 1]\n[0, 1]\n[0, 1]\n[0, 1]\n[0, 1]\n[1, 0]]", fillcolor="#e58139"] ;
366 -> 368 ;
369 [label="x[2] <= 0.5\ngini = 0.167\nsamples = 10\nvalue = [[0, 10]\n[0, 10]\n[2, 8]\n[1, 9]\n[2, 8]\n[1, 9]]", fillcolor="#eeaf81"] ;
361 -> 369 ;
370 [label="x[12] <= 82.5\ngini = 0.083\nsamples = 2\nvalue = [[0, 2]\n[0, 2]\n[0, 2]\n[0, 2]\n[0, 2]\n[1, 1]]", fillcolor="#ea985d"] ;
369 -> 370 ;
371 [label="gini = 0.0\nsamples = 1\nvalue = [[0, 1]\n[0, 1]\n[0, 1]\n[0, 1]\n[0, 1]\n[1, 0]]", fillcolor="#e58139"] ;
370 -> 371 ;
372 [label="gini = 0.0\nsamples = 1\nvalue = [[0, 1]\n[0, 1]\n[0, 1]\n[0, 1]\n[0, 1]\n[0, 1]]", fillcolor="#e58139"] ;
370 -> 372 ;
373 [label="x[3] <= 0.5\ngini = 0.161\nsamples = 8\nvalue = [[0, 8]\n[0, 8]\n[2, 6]\n[1, 7]\n[2, 6]\n[0, 8]]", fillcolor="#eead7e"] ;
369 -> 373 ;
374 [label="gini = 0.0\nsamples = 1\nvalue = [[0, 1]\n[0, 1]\n[1, 0]\n[0, 1]\n[0, 1]\n[0, 1]]", fillcolor="#e58139"] ;
373 -> 374 ;
375 [label="x[12] <= 80.5\ngini = 0.15\nsamples = 7\nvalue = [[0, 7]\n[0, 7]\n[1, 6]\n[1, 6]\n[2, 5]\n[0, 7]]", fillcolor="#edaa79"] ;
373 -> 375 ;
376 [label="x[12] <= 67.5\ngini = 0.053\nsamples = 5\nvalue = [[0, 5]\n[0, 5]\n[0, 5]\n[0, 5]\n[1, 4]\n[0, 5]]", fillcolor="#e89050"] ;
375 -> 376 ;
377 [label="x[9] <= 0.5\ngini = 0.083\nsamples = 2\nvalue = [[0, 2]\n[0, 2]\n[0, 2]\n[0, 2]\n[1, 1]\n[0, 2]]", fillcolor="#ea985d"] ;
376 -> 377 ;
378 [label="gini = 0.0\nsamples = 1\nvalue = [[0, 1]\n[0, 1]\n[0, 1]\n[0, 1]\n[0, 1]\n[0, 1]]", fillcolor="#e58139"] ;
377 -> 378 ;
379 [label="gini = 0.0\nsamples = 1\nvalue = [[0, 1]\n[0, 1]\n[0, 1]\n[0, 1]\n[1, 0]\n[0, 1]]", fillcolor="#e58139"] ;
377 -> 379 ;
380 [label="gini = 0.0\nsamples = 3\nvalue = [[0, 3]\n[0, 3]\n[0, 3]\n[0, 3]\n[0, 3]\n[0, 3]]", fillcolor="#e58139"] ;
376 -> 380 ;
381 [label="x[14] <= 4.0\ngini = 0.25\nsamples = 2\nvalue = [[0, 2]\n[0, 2]\n[1, 1]\n[1, 1]\n[1, 1]\n[0, 2]]", fillcolor="#f3c5a4"] ;
375 -> 381 ;
382 [label="gini = 0.0\nsamples = 1\nvalue = [[0, 1]\n[0, 1]\n[1, 0]\n[1, 0]\n[1, 0]\n[0, 1]]", fillcolor="#e58139"] ;
381 -> 382 ;
383 [label="gini = 0.0\nsamples = 1\nvalue = [[0, 1]\n[0, 1]\n[0, 1]\n[0, 1]\n[0, 1]\n[0, 1]]", fillcolor="#e58139"] ;
381 -> 383 ;
384 [label="x[12] <= 122.5\ngini = 0.185\nsamples = 169\nvalue = [[0, 169]\n[0, 169]\n[8, 161]\n[28, 141]\n[32, 137]\n[54, 115]]", fillcolor="#efb388"] ;
4 -> 384 ;
385 [label="x[12] <= 104.5\ngini = 0.175\nsamples = 150\nvalue = [[0, 150]\n[0, 150]\n[7, 143]\n[22, 128]\n[26, 124]\n[46, 104]]", fillcolor="#efb184"] ;
384 -> 385 ;
386 [label="x[12] <= 103.5\ngini = 0.198\nsamples = 82\nvalue = [[0, 82]\n[0, 82]\n[6, 76]\n[18, 64]\n[16, 66]\n[22, 60]]", fillcolor="#f0b78e"] ;
385 -> 386 ;
387 [label="x[14] <= 1.5\ngini = 0.181\nsamples = 79\nvalue = [[0, 79]\n[0, 79]\n[4, 75]\n[15, 64]\n[14, 65]\n[21, 58]]", fillcolor="#efb287"] ;
386 -> 387 ;
388 [label="x[12] <= 102.0\ngini = 0.224\nsamples = 25\nvalue = [[0, 25]\n[0, 25]\n[1, 24]\n[7, 18]\n[7, 18]\n[9, 16]]", fillcolor="#f2be99"] ;
387 -> 388 ;
389 [label="x[0] <= 0.5\ngini = 0.212\nsamples = 24\nvalue = [[0, 24]\n[0, 24]\n[1, 23]\n[6, 18]\n[6, 18]\n[8, 16]]", fillcolor="#f1bb94"] ;
388 -> 389 ;
390 [label="x[8] <= 0.5\ngini = 0.164\nsamples = 12\nvalue = [[0, 12]\n[0, 12]\n[1, 11]\n[2, 10]\n[2, 10]\n[2, 10]]", fillcolor="#eeae80"] ;
389 -> 390 ;
391 [label="x[7] <= 0.5\ngini = 0.224\nsamples = 8\nvalue = [[0, 8]\n[0, 8]\n[1, 7]\n[2, 6]\n[2, 6]\n[2, 6]]", fillcolor="#f2be99"] ;
390 -> 391 ;
392 [label="x[14] <= 0.5\ngini = 0.163\nsamples = 7\nvalue = [[0, 7]\n[0, 7]\n[1, 6]\n[1, 6]\n[1, 6]\n[1, 6]]", fillcolor="#eeae7f"] ;
391 -> 392 ;
393 [label="x[2] <= 0.5\ngini = 0.074\nsamples = 3\nvalue = [[0, 3]\n[0, 3]\n[0, 3]\n[0, 3]\n[0, 3]\n[1, 2]]", fillcolor="#e99559"] ;
392 -> 393 ;
394 [label="gini = 0.083\nsamples = 2\nvalue = [[0, 2]\n[0, 2]\n[0, 2]\n[0, 2]\n[0, 2]\n[1, 1]]", fillcolor="#ea985d"] ;
393 -> 394 ;
395 [label="gini = 0.0\nsamples = 1\nvalue = [[0, 1]\n[0, 1]\n[0, 1]\n[0, 1]\n[0, 1]\n[0, 1]]", fillcolor="#e58139"] ;
393 -> 395 ;
396 [label="x[1] <= 0.5\ngini = 0.188\nsamples = 4\nvalue = [[0, 4]\n[0, 4]\n[1, 3]\n[1, 3]\n[1, 3]\n[0, 4]]", fillcolor="#f0b48a"] ;
392 -> 396 ;
397 [label="x[12] <= 94.0\ngini = 0.25\nsamples = 2\nvalue = [[0, 2]\n[0, 2]\n[1, 1]\n[1, 1]\n[1, 1]\n[0, 2]]", fillcolor="#f3c5a4"] ;
396 -> 397 ;
398 [label="gini = 0.0\nsamples = 1\nvalue = [[0, 1]\n[0, 1]\n[1, 0]\n[1, 0]\n[1, 0]\n[0, 1]]", fillcolor="#e58139"] ;
397 -> 398 ;
399 [label="gini = 0.0\nsamples = 1\nvalue = [[0, 1]\n[0, 1]\n[0, 1]\n[0, 1]\n[0, 1]\n[0, 1]]", fillcolor="#e58139"] ;
397 -> 399 ;
400 [label="gini = 0.0\nsamples = 2\nvalue = [[0, 2]\n[0, 2]\n[0, 2]\n[0, 2]\n[0, 2]\n[0, 2]]", fillcolor="#e58139"] ;
396 -> 400 ;
401 [label="gini = 0.0\nsamples = 1\nvalue = [[0, 1]\n[0, 1]\n[0, 1]\n[1, 0]\n[1, 0]\n[1, 0]]", fillcolor="#e58139"] ;
391 -> 401 ;
402 [label="gini = 0.0\nsamples = 4\nvalue = [[0, 4]\n[0, 4]\n[0, 4]\n[0, 4]\n[0, 4]\n[0, 4]]", fillcolor="#e58139"] ;
390 -> 402 ;
403 [label="x[12] <= 97.0\ngini = 0.231\nsamples = 12\nvalue = [[0, 12]\n[0, 12]\n[0, 12]\n[4, 8]\n[4, 8]\n[6, 6]]", fillcolor="#f2c09c"] ;
389 -> 403 ;
404 [label="x[6] <= 0.5\ngini = 0.08\nsamples = 5\nvalue = [[0, 5]\n[0, 5]\n[0, 5]\n[0, 5]\n[0, 5]\n[2, 3]]", fillcolor="#ea975b"] ;
403 -> 404 ;
405 [label="gini = 0.0\nsamples = 2\nvalue = [[0, 2]\n[0, 2]\n[0, 2]\n[0, 2]\n[0, 2]\n[0, 2]]", fillcolor="#e58139"] ;
404 -> 405 ;
406 [label="x[8] <= 0.5\ngini = 0.074\nsamples = 3\nvalue = [[0, 3]\n[0, 3]\n[0, 3]\n[0, 3]\n[0, 3]\n[2, 1]]", fillcolor="#e99559"] ;
404 -> 406 ;
407 [label="gini = 0.0\nsamples = 2\nvalue = [[0, 2]\n[0, 2]\n[0, 2]\n[0, 2]\n[0, 2]\n[2, 0]]", fillcolor="#e58139"] ;
406 -> 407 ;
408 [label="gini = 0.0\nsamples = 1\nvalue = [[0, 1]\n[0, 1]\n[0, 1]\n[0, 1]\n[0, 1]\n[0, 1]]", fillcolor="#e58139"] ;
406 -> 408 ;
409 [label="x[1] <= 0.5\ngini = 0.245\nsamples = 7\nvalue = [[0, 7]\n[0, 7]\n[0, 7]\n[4, 3]\n[4, 3]\n[4, 3]]", fillcolor="#f3c4a2"] ;
403 -> 409 ;
410 [label="gini = 0.0\nsamples = 2\nvalue = [[0, 2]\n[0, 2]\n[0, 2]\n[2, 0]\n[2, 0]\n[2, 0]]", fillcolor="#e58139"] ;
409 -> 410 ;
411 [label="x[12] <= 98.5\ngini = 0.24\nsamples = 5\nvalue = [[0, 5]\n[0, 5]\n[0, 5]\n[2, 3]\n[2, 3]\n[2, 3]]", fillcolor="#f3c3a0"] ;
409 -> 411 ;
412 [label="gini = 0.0\nsamples = 1\nvalue = [[0, 1]\n[0, 1]\n[0, 1]\n[1, 0]\n[1, 0]\n[1, 0]]", fillcolor="#e58139"] ;
411 -> 412 ;
413 [label="x[7] <= 0.5\ngini = 0.188\nsamples = 4\nvalue = [[0, 4]\n[0, 4]\n[0, 4]\n[1, 3]\n[1, 3]\n[1, 3]]", fillcolor="#f0b48a"] ;
411 -> 413 ;
414 [label="x[4] <= 0.5\ngini = 0.25\nsamples = 2\nvalue = [[0, 2]\n[0, 2]\n[0, 2]\n[1, 1]\n[1, 1]\n[1, 1]]", fillcolor="#f3c5a4"] ;
413 -> 414 ;
415 [label="gini = 0.0\nsamples = 1\nvalue = [[0, 1]\n[0, 1]\n[0, 1]\n[1, 0]\n[1, 0]\n[1, 0]]", fillcolor="#e58139"] ;
414 -> 415 ;
416 [label="gini = 0.0\nsamples = 1\nvalue = [[0, 1]\n[0, 1]\n[0, 1]\n[0, 1]\n[0, 1]\n[0, 1]]", fillcolor="#e58139"] ;
414 -> 416 ;
417 [label="gini = 0.0\nsamples = 2\nvalue = [[0, 2]\n[0, 2]\n[0, 2]\n[0, 2]\n[0, 2]\n[0, 2]]", fillcolor="#e58139"] ;
413 -> 417 ;
418 [label="gini = 0.0\nsamples = 1\nvalue = [[0, 1]\n[0, 1]\n[0, 1]\n[1, 0]\n[1, 0]\n[1, 0]]", fillcolor="#e58139"] ;
388 -> 418 ;
419 [label="x[3] <= 0.5\ngini = 0.155\nsamples = 54\nvalue = [[0, 54]\n[0, 54]\n[3, 51]\n[8, 46]\n[7, 47]\n[12, 42]]", fillcolor="#eeab7b"] ;
387 -> 419 ;
420 [label="x[12] <= 96.5\ngini = 0.143\nsamples = 35\nvalue = [[0, 35]\n[0, 35]\n[0, 35]\n[4, 31]\n[5, 30]\n[10, 25]]", fillcolor="#eda876"] ;
419 -> 420 ;
421 [label="x[0] <= 0.5\ngini = 0.174\nsamples = 22\nvalue = [[0, 22]\n[0, 22]\n[0, 22]\n[4, 18]\n[5, 17]\n[6, 16]]", fillcolor="#efb184"] ;
420 -> 421 ;
422 [label="x[5] <= 0.5\ngini = 0.201\nsamples = 14\nvalue = [[0, 14]\n[0, 14]\n[0, 14]\n[4, 10]\n[5, 9]\n[3, 11]]", fillcolor="#f0b88f"] ;
421 -> 422 ;
423 [label="x[12] <= 90.5\ngini = 0.174\nsamples = 13\nvalue = [[0, 13]\n[0, 13]\n[0, 13]\n[3, 10]\n[4, 9]\n[2, 11]]", fillcolor="#efb084"] ;
422 -> 423 ;
424 [label="x[12] <= 88.5\ngini = 0.093\nsamples = 6\nvalue = [[0, 6]\n[0, 6]\n[0, 6]\n[0, 6]\n[1, 5]\n[1, 5]]", fillcolor="#ea9a61"] ;
423 -> 424 ;
425 [label="x[8] <= 0.5\ngini = 0.148\nsamples = 3\nvalue = [[0, 3]\n[0, 3]\n[0, 3]\n[0, 3]\n[1, 2]\n[1, 2]]", fillcolor="#eda979"] ;
424 -> 425 ;
426 [label="x[14] <= 5.5\ngini = 0.167\nsamples = 2\nvalue = [[0, 2]\n[0, 2]\n[0, 2]\n[0, 2]\n[1, 1]\n[1, 1]]", fillcolor="#eeaf81"] ;
425 -> 426 ;
427 [label="gini = 0.0\nsamples = 1\nvalue = [[0, 1]\n[0, 1]\n[0, 1]\n[0, 1]\n[1, 0]\n[1, 0]]", fillcolor="#e58139"] ;
426 -> 427 ;
428 [label="gini = 0.0\nsamples = 1\nvalue = [[0, 1]\n[0, 1]\n[0, 1]\n[0, 1]\n[0, 1]\n[0, 1]]", fillcolor="#e58139"] ;
426 -> 428 ;
429 [label="gini = 0.0\nsamples = 1\nvalue = [[0, 1]\n[0, 1]\n[0, 1]\n[0, 1]\n[0, 1]\n[0, 1]]", fillcolor="#e58139"] ;
425 -> 429 ;
430 [label="gini = 0.0\nsamples = 3\nvalue = [[0, 3]\n[0, 3]\n[0, 3]\n[0, 3]\n[0, 3]\n[0, 3]]", fillcolor="#e58139"] ;
424 -> 430 ;
431 [label="x[14] <= 3.5\ngini = 0.204\nsamples = 7\nvalue = [[0, 7]\n[0, 7]\n[0, 7]\n[3, 4]\n[3, 4]\n[1, 6]]", fillcolor="#f1b991"] ;
423 -> 431 ;
432 [label="x[12] <= 93.0\ngini = 0.222\nsamples = 3\nvalue = [[0, 3]\n[0, 3]\n[0, 3]\n[2, 1]\n[2, 1]\n[1, 2]]", fillcolor="#f2be98"] ;
431 -> 432 ;
433 [label="gini = 0.0\nsamples = 1\nvalue = [[0, 1]\n[0, 1]\n[0, 1]\n[0, 1]\n[0, 1]\n[0, 1]]", fillcolor="#e58139"] ;
432 -> 433 ;
434 [label="x[14] <= 2.5\ngini = 0.083\nsamples = 2\nvalue = [[0, 2]\n[0, 2]\n[0, 2]\n[2, 0]\n[2, 0]\n[1, 1]]", fillcolor="#ea985d"] ;
432 -> 434 ;
435 [label="gini = 0.0\nsamples = 1\nvalue = [[0, 1]\n[0, 1]\n[0, 1]\n[1, 0]\n[1, 0]\n[0, 1]]", fillcolor="#e58139"] ;
434 -> 435 ;
436 [label="gini = 0.0\nsamples = 1\nvalue = [[0, 1]\n[0, 1]\n[0, 1]\n[1, 0]\n[1, 0]\n[1, 0]]", fillcolor="#e58139"] ;
434 -> 436 ;
437 [label="x[12] <= 93.0\ngini = 0.125\nsamples = 4\nvalue = [[0, 4]\n[0, 4]\n[0, 4]\n[1, 3]\n[1, 3]\n[0, 4]]", fillcolor="#eca36f"] ;
431 -> 437 ;
438 [label="gini = 0.0\nsamples = 1\nvalue = [[0, 1]\n[0, 1]\n[0, 1]\n[1, 0]\n[1, 0]\n[0, 1]]", fillcolor="#e58139"] ;
437 -> 438 ;
439 [label="gini = 0.0\nsamples = 3\nvalue = [[0, 3]\n[0, 3]\n[0, 3]\n[0, 3]\n[0, 3]\n[0, 3]]", fillcolor="#e58139"] ;
437 -> 439 ;
440 [label="gini = 0.0\nsamples = 1\nvalue = [[0, 1]\n[0, 1]\n[0, 1]\n[1, 0]\n[1, 0]\n[1, 0]]", fillcolor="#e58139"] ;
422 -> 440 ;
441 [label="x[12] <= 94.0\ngini = 0.078\nsamples = 8\nvalue = [[0, 8]\n[0, 8]\n[0, 8]\n[0, 8]\n[0, 8]\n[3, 5]]", fillcolor="#e9965b"] ;
421 -> 441 ;
442 [label="x[1] <= 0.5\ngini = 0.08\nsamples = 5\nvalue = [[0, 5]\n[0, 5]\n[0, 5]\n[0, 5]\n[0, 5]\n[3, 2]]", fillcolor="#ea975b"] ;
441 -> 442 ;
443 [label="x[12] <= 92.5\ngini = 0.074\nsamples = 3\nvalue = [[0, 3]\n[0, 3]\n[0, 3]\n[0, 3]\n[0, 3]\n[1, 2]]", fillcolor="#e99559"] ;
442 -> 443 ;
444 [label="gini = 0.0\nsamples = 2\nvalue = [[0, 2]\n[0, 2]\n[0, 2]\n[0, 2]\n[0, 2]\n[0, 2]]", fillcolor="#e58139"] ;
443 -> 444 ;
445 [label="gini = 0.0\nsamples = 1\nvalue = [[0, 1]\n[0, 1]\n[0, 1]\n[0, 1]\n[0, 1]\n[1, 0]]", fillcolor="#e58139"] ;
443 -> 445 ;
446 [label="gini = 0.0\nsamples = 2\nvalue = [[0, 2]\n[0, 2]\n[0, 2]\n[0, 2]\n[0, 2]\n[2, 0]]", fillcolor="#e58139"] ;
442 -> 446 ;
447 [label="gini = 0.0\nsamples = 3\nvalue = [[0, 3]\n[0, 3]\n[0, 3]\n[0, 3]\n[0, 3]\n[0, 3]]", fillcolor="#e58139"] ;
441 -> 447 ;
448 [label="x[8] <= 0.5\ngini = 0.071\nsamples = 13\nvalue = [[0, 13]\n[0, 13]\n[0, 13]\n[0, 13]\n[0, 13]\n[4, 9]]", fillcolor="#e99457"] ;
420 -> 448 ;
449 [label="x[13] <= 0.5\ngini = 0.053\nsamples = 10\nvalue = [[0, 10]\n[0, 10]\n[0, 10]\n[0, 10]\n[0, 10]\n[2, 8]]", fillcolor="#e89050"] ;
448 -> 449 ;
450 [label="x[0] <= 0.5\ngini = 0.068\nsamples = 7\nvalue = [[0, 7]\n[0, 7]\n[0, 7]\n[0, 7]\n[0, 7]\n[2, 5]]", fillcolor="#e99456"] ;
449 -> 450 ;
451 [label="x[12] <= 97.5\ngini = 0.08\nsamples = 5\nvalue = [[0, 5]\n[0, 5]\n[0, 5]\n[0, 5]\n[0, 5]\n[2, 3]]", fillcolor="#ea975b"] ;
450 -> 451 ;
452 [label="gini = 0.0\nsamples = 1\nvalue = [[0, 1]\n[0, 1]\n[0, 1]\n[0, 1]\n[0, 1]\n[0, 1]]", fillcolor="#e58139"] ;
451 -> 452 ;
453 [label="x[14] <= 2.5\ngini = 0.083\nsamples = 4\nvalue = [[0, 4]\n[0, 4]\n[0, 4]\n[0, 4]\n[0, 4]\n[2, 2]]", fillcolor="#ea985d"] ;
451 -> 453 ;
454 [label="x[12] <= 98.5\ngini = 0.074\nsamples = 3\nvalue = [[0, 3]\n[0, 3]\n[0, 3]\n[0, 3]\n[0, 3]\n[1, 2]]", fillcolor="#e99559"] ;
453 -> 454 ;
455 [label="gini = 0.0\nsamples = 1\nvalue = [[0, 1]\n[0, 1]\n[0, 1]\n[0, 1]\n[0, 1]\n[1, 0]]", fillcolor="#e58139"] ;
454 -> 455 ;
456 [label="gini = 0.0\nsamples = 2\nvalue = [[0, 2]\n[0, 2]\n[0, 2]\n[0, 2]\n[0, 2]\n[0, 2]]", fillcolor="#e58139"] ;
454 -> 456 ;
457 [label="gini = 0.0\nsamples = 1\nvalue = [[0, 1]\n[0, 1]\n[0, 1]\n[0, 1]\n[0, 1]\n[1, 0]]", fillcolor="#e58139"] ;
453 -> 457 ;
458 [label="gini = 0.0\nsamples = 2\nvalue = [[0, 2]\n[0, 2]\n[0, 2]\n[0, 2]\n[0, 2]\n[0, 2]]", fillcolor="#e58139"] ;
450 -> 458 ;
459 [label="gini = 0.0\nsamples = 3\nvalue = [[0, 3]\n[0, 3]\n[0, 3]\n[0, 3]\n[0, 3]\n[0, 3]]", fillcolor="#e58139"] ;
449 -> 459 ;
460 [label="x[14] <= 2.5\ngini = 0.074\nsamples = 3\nvalue = [[0, 3]\n[0, 3]\n[0, 3]\n[0, 3]\n[0, 3]\n[2, 1]]", fillcolor="#e99559"] ;
448 -> 460 ;
461 [label="gini = 0.0\nsamples = 1\nvalue = [[0, 1]\n[0, 1]\n[0, 1]\n[0, 1]\n[0, 1]\n[0, 1]]", fillcolor="#e58139"] ;
460 -> 461 ;
462 [label="gini = 0.0\nsamples = 2\nvalue = [[0, 2]\n[0, 2]\n[0, 2]\n[0, 2]\n[0, 2]\n[2, 0]]", fillcolor="#e58139"] ;
460 -> 462 ;
463 [label="x[14] <= 5.5\ngini = 0.163\nsamples = 19\nvalue = [[0, 19]\n[0, 19]\n[3, 16]\n[4, 15]\n[2, 17]\n[2, 17]]", fillcolor="#eead7f"] ;
419 -> 463 ;
464 [label="x[0] <= 0.5\ngini = 0.107\nsamples = 16\nvalue = [[0, 16]\n[0, 16]\n[2, 14]\n[3, 13]\n[1, 15]\n[0, 16]]", fillcolor="#eb9e67"] ;
463 -> 464 ;
465 [label="x[2] <= 0.5\ngini = 0.208\nsamples = 4\nvalue = [[0, 4]\n[0, 4]\n[1, 3]\n[2, 2]\n[1, 3]\n[0, 4]]", fillcolor="#f1ba92"] ;
464 -> 465 ;
466 [label="gini = 0.0\nsamples = 1\nvalue = [[0, 1]\n[0, 1]\n[1, 0]\n[1, 0]\n[1, 0]\n[0, 1]]", fillcolor="#e58139"] ;
465 -> 466 ;
467 [label="x[1] <= 0.5\ngini = 0.074\nsamples = 3\nvalue = [[0, 3]\n[0, 3]\n[0, 3]\n[1, 2]\n[0, 3]\n[0, 3]]", fillcolor="#e99559"] ;
465 -> 467 ;
468 [label="gini = 0.0\nsamples = 2\nvalue = [[0, 2]\n[0, 2]\n[0, 2]\n[0, 2]\n[0, 2]\n[0, 2]]", fillcolor="#e58139"] ;
467 -> 468 ;
469 [label="gini = 0.0\nsamples = 1\nvalue = [[0, 1]\n[0, 1]\n[0, 1]\n[1, 0]\n[0, 1]\n[0, 1]]", fillcolor="#e58139"] ;
467 -> 469 ;
470 [label="x[4] <= 0.5\ngini = 0.051\nsamples = 12\nvalue = [[0, 12]\n[0, 12]\n[1, 11]\n[1, 11]\n[0, 12]\n[0, 12]]", fillcolor="#e88f4f"] ;
464 -> 470 ;
471 [label="x[12] <= 99.5\ngini = 0.167\nsamples = 2\nvalue = [[0, 2]\n[0, 2]\n[1, 1]\n[1, 1]\n[0, 2]\n[0, 2]]", fillcolor="#eeaf81"] ;
470 -> 471 ;
472 [label="gini = 0.0\nsamples = 1\nvalue = [[0, 1]\n[0, 1]\n[1, 0]\n[1, 0]\n[0, 1]\n[0, 1]]", fillcolor="#e58139"] ;
471 -> 472 ;
473 [label="gini = 0.0\nsamples = 1\nvalue = [[0, 1]\n[0, 1]\n[0, 1]\n[0, 1]\n[0, 1]\n[0, 1]]", fillcolor="#e58139"] ;
471 -> 473 ;
474 [label="gini = 0.0\nsamples = 10\nvalue = [[0, 10]\n[0, 10]\n[0, 10]\n[0, 10]\n[0, 10]\n[0, 10]]", fillcolor="#e58139"] ;
470 -> 474 ;
475 [label="x[7] <= 0.5\ngini = 0.296\nsamples = 3\nvalue = [[0, 3]\n[0, 3]\n[1, 2]\n[1, 2]\n[1, 2]\n[2, 1]]", fillcolor="#f6d2b8"] ;
463 -> 475 ;
476 [label="gini = 0.0\nsamples = 1\nvalue = [[0, 1]\n[0, 1]\n[1, 0]\n[1, 0]\n[1, 0]\n[1, 0]]", fillcolor="#e58139"] ;
475 -> 476 ;
477 [label="x[5] <= 0.5\ngini = 0.083\nsamples = 2\nvalue = [[0, 2]\n[0, 2]\n[0, 2]\n[0, 2]\n[0, 2]\n[1, 1]]", fillcolor="#ea985d"] ;
475 -> 477 ;
478 [label="gini = 0.0\nsamples = 1\nvalue = [[0, 1]\n[0, 1]\n[0, 1]\n[0, 1]\n[0, 1]\n[1, 0]]", fillcolor="#e58139"] ;
477 -> 478 ;
479 [label="gini = 0.0\nsamples = 1\nvalue = [[0, 1]\n[0, 1]\n[0, 1]\n[0, 1]\n[0, 1]\n[0, 1]]", fillcolor="#e58139"] ;
477 -> 479 ;
480 [label="x[8] <= 0.5\ngini = 0.222\nsamples = 3\nvalue = [[0, 3]\n[0, 3]\n[2, 1]\n[3, 0]\n[2, 1]\n[1, 2]]", fillcolor="#f2be98"] ;
386 -> 480 ;
481 [label="gini = 0.0\nsamples = 1\nvalue = [[0, 1]\n[0, 1]\n[0, 1]\n[1, 0]\n[1, 0]\n[1, 0]]", fillcolor="#e58139"] ;
480 -> 481 ;
482 [label="x[5] <= 0.5\ngini = 0.083\nsamples = 2\nvalue = [[0, 2]\n[0, 2]\n[2, 0]\n[2, 0]\n[1, 1]\n[0, 2]]", fillcolor="#ea985d"] ;
480 -> 482 ;
483 [label="gini = 0.0\nsamples = 1\nvalue = [[0, 1]\n[0, 1]\n[1, 0]\n[1, 0]\n[1, 0]\n[0, 1]]", fillcolor="#e58139"] ;
482 -> 483 ;
484 [label="gini = 0.0\nsamples = 1\nvalue = [[0, 1]\n[0, 1]\n[1, 0]\n[1, 0]\n[0, 1]\n[0, 1]]", fillcolor="#e58139"] ;
482 -> 484 ;
485 [label="x[12] <= 105.5\ngini = 0.141\nsamples = 68\nvalue = [[0, 68]\n[0, 68]\n[1, 67]\n[4, 64]\n[10, 58]\n[24, 44]]", fillcolor="#eda876"] ;
385 -> 485 ;
486 [label="x[2] <= 0.5\ngini = 0.083\nsamples = 2\nvalue = [[0, 2]\n[0, 2]\n[0, 2]\n[0, 2]\n[1, 1]\n[2, 0]]", fillcolor="#ea985d"] ;
485 -> 486 ;
487 [label="gini = 0.0\nsamples = 1\nvalue = [[0, 1]\n[0, 1]\n[0, 1]\n[0, 1]\n[1, 0]\n[1, 0]]", fillcolor="#e58139"] ;
486 -> 487 ;
488 [label="gini = 0.0\nsamples = 1\nvalue = [[0, 1]\n[0, 1]\n[0, 1]\n[0, 1]\n[0, 1]\n[1, 0]]", fillcolor="#e58139"] ;
486 -> 488 ;
489 [label="x[12] <= 107.5\ngini = 0.137\nsamples = 66\nvalue = [[0, 66]\n[0, 66]\n[1, 65]\n[4, 62]\n[9, 57]\n[22, 44]]", fillcolor="#eda774"] ;
485 -> 489 ;
490 [label="gini = 0.0\nsamples = 4\nvalue = [[0, 4]\n[0, 4]\n[0, 4]\n[0, 4]\n[0, 4]\n[0, 4]]", fillcolor="#e58139"] ;
489 -> 490 ;
491 [label="x[7] <= 0.5\ngini = 0.143\nsamples = 62\nvalue = [[0, 62]\n[0, 62]\n[1, 61]\n[4, 58]\n[9, 53]\n[22, 40]]", fillcolor="#eda876"] ;
489 -> 491 ;
492 [label="x[5] <= 0.5\ngini = 0.128\nsamples = 39\nvalue = [[0, 39]\n[0, 39]\n[0, 39]\n[3, 36]\n[5, 34]\n[11, 28]]", fillcolor="#eca470"] ;
491 -> 492 ;
493 [label="x[12] <= 111.5\ngini = 0.174\nsamples = 23\nvalue = [[0, 23]\n[0, 23]\n[0, 23]\n[3, 20]\n[5, 18]\n[9, 14]]", fillcolor="#efb184"] ;
492 -> 493 ;
494 [label="x[1] <= 0.5\ngini = 0.222\nsamples = 6\nvalue = [[0, 6]\n[0, 6]\n[0, 6]\n[2, 4]\n[2, 4]\n[4, 2]]", fillcolor="#f2be98"] ;
493 -> 494 ;
495 [label="x[14] <= 1.5\ngini = 0.167\nsamples = 4\nvalue = [[0, 4]\n[0, 4]\n[0, 4]\n[2, 2]\n[2, 2]\n[4, 0]]", fillcolor="#eeaf81"] ;
494 -> 495 ;
496 [label="gini = 0.0\nsamples = 2\nvalue = [[0, 2]\n[0, 2]\n[0, 2]\n[2, 0]\n[2, 0]\n[2, 0]]", fillcolor="#e58139"] ;
495 -> 496 ;
497 [label="gini = 0.0\nsamples = 2\nvalue = [[0, 2]\n[0, 2]\n[0, 2]\n[0, 2]\n[0, 2]\n[2, 0]]", fillcolor="#e58139"] ;
495 -> 497 ;
498 [label="gini = 0.0\nsamples = 2\nvalue = [[0, 2]\n[0, 2]\n[0, 2]\n[0, 2]\n[0, 2]\n[0, 2]]", fillcolor="#e58139"] ;
494 -> 498 ;
499 [label="x[2] <= 0.5\ngini = 0.136\nsamples = 17\nvalue = [[0, 17]\n[0, 17]\n[0, 17]\n[1, 16]\n[3, 14]\n[5, 12]]", fillcolor="#eda673"] ;
493 -> 499 ;
500 [label="x[14] <= 2.5\ngini = 0.097\nsamples = 12\nvalue = [[0, 12]\n[0, 12]\n[0, 12]\n[1, 11]\n[1, 11]\n[2, 10]]", fillcolor="#ea9c63"] ;
499 -> 500 ;
501 [label="gini = 0.0\nsamples = 5\nvalue = [[0, 5]\n[0, 5]\n[0, 5]\n[0, 5]\n[0, 5]\n[0, 5]]", fillcolor="#e58139"] ;
500 -> 501 ;
502 [label="x[12] <= 116.0\ngini = 0.15\nsamples = 7\nvalue = [[0, 7]\n[0, 7]\n[0, 7]\n[1, 6]\n[1, 6]\n[2, 5]]", fillcolor="#edaa79"] ;
500 -> 502 ;
503 [label="gini = 0.0\nsamples = 3\nvalue = [[0, 3]\n[0, 3]\n[0, 3]\n[0, 3]\n[0, 3]\n[0, 3]]", fillcolor="#e58139"] ;
502 -> 503 ;
504 [label="x[0] <= 0.5\ngini = 0.208\nsamples = 4\nvalue = [[0, 4]\n[0, 4]\n[0, 4]\n[1, 3]\n[1, 3]\n[2, 2]]", fillcolor="#f1ba92"] ;
502 -> 504 ;
505 [label="x[14] <= 4.0\ngini = 0.167\nsamples = 2\nvalue = [[0, 2]\n[0, 2]\n[0, 2]\n[1, 1]\n[1, 1]\n[2, 0]]", fillcolor="#eeaf81"] ;
504 -> 505 ;
506 [label="gini = 0.0\nsamples = 1\nvalue = [[0, 1]\n[0, 1]\n[0, 1]\n[0, 1]\n[0, 1]\n[1, 0]]", fillcolor="#e58139"] ;
505 -> 506 ;
507 [label="gini = 0.0\nsamples = 1\nvalue = [[0, 1]\n[0, 1]\n[0, 1]\n[1, 0]\n[1, 0]\n[1, 0]]", fillcolor="#e58139"] ;
505 -> 507 ;
508 [label="gini = 0.0\nsamples = 2\nvalue = [[0, 2]\n[0, 2]\n[0, 2]\n[0, 2]\n[0, 2]\n[0, 2]]", fillcolor="#e58139"] ;
504 -> 508 ;
509 [label="x[12] <= 112.5\ngini = 0.16\nsamples = 5\nvalue = [[0, 5]\n[0, 5]\n[0, 5]\n[0, 5]\n[2, 3]\n[3, 2]]", fillcolor="#eead7e"] ;
499 -> 509 ;
510 [label="gini = 0.0\nsamples = 1\nvalue = [[0, 1]\n[0, 1]\n[0, 1]\n[0, 1]\n[0, 1]\n[0, 1]]", fillcolor="#e58139"] ;
509 -> 510 ;
511 [label="x[4] <= 0.5\ngini = 0.146\nsamples = 4\nvalue = [[0, 4]\n[0, 4]\n[0, 4]\n[0, 4]\n[2, 2]\n[3, 1]]", fillcolor="#eda978"] ;
509 -> 511 ;
512 [label="gini = 0.0\nsamples = 2\nvalue = [[0, 2]\n[0, 2]\n[0, 2]\n[0, 2]\n[2, 0]\n[2, 0]]", fillcolor="#e58139"] ;
511 -> 512 ;
513 [label="x[12] <= 114.0\ngini = 0.083\nsamples = 2\nvalue = [[0, 2]\n[0, 2]\n[0, 2]\n[0, 2]\n[0, 2]\n[1, 1]]", fillcolor="#ea985d"] ;
511 -> 513 ;
514 [label="gini = 0.0\nsamples = 1\nvalue = [[0, 1]\n[0, 1]\n[0, 1]\n[0, 1]\n[0, 1]\n[1, 0]]", fillcolor="#e58139"] ;
513 -> 514 ;
515 [label="gini = 0.0\nsamples = 1\nvalue = [[0, 1]\n[0, 1]\n[0, 1]\n[0, 1]\n[0, 1]\n[0, 1]]", fillcolor="#e58139"] ;
513 -> 515 ;
516 [label="x[12] <= 112.0\ngini = 0.036\nsamples = 16\nvalue = [[0, 16]\n[0, 16]\n[0, 16]\n[0, 16]\n[0, 16]\n[2, 14]]", fillcolor="#e78b49"] ;
492 -> 516 ;
517 [label="x[6] <= 0.5\ngini = 0.062\nsamples = 8\nvalue = [[0, 8]\n[0, 8]\n[0, 8]\n[0, 8]\n[0, 8]\n[2, 6]]", fillcolor="#e99254"] ;
516 -> 517 ;
518 [label="x[14] <= 1.0\ngini = 0.083\nsamples = 4\nvalue = [[0, 4]\n[0, 4]\n[0, 4]\n[0, 4]\n[0, 4]\n[2, 2]]", fillcolor="#ea985d"] ;
517 -> 518 ;
519 [label="gini = 0.0\nsamples = 1\nvalue = [[0, 1]\n[0, 1]\n[0, 1]\n[0, 1]\n[0, 1]\n[0, 1]]", fillcolor="#e58139"] ;
518 -> 519 ;
520 [label="x[12] <= 109.5\ngini = 0.074\nsamples = 3\nvalue = [[0, 3]\n[0, 3]\n[0, 3]\n[0, 3]\n[0, 3]\n[2, 1]]", fillcolor="#e99559"] ;
518 -> 520 ;
521 [label="gini = 0.0\nsamples = 1\nvalue = [[0, 1]\n[0, 1]\n[0, 1]\n[0, 1]\n[0, 1]\n[1, 0]]", fillcolor="#e58139"] ;
520 -> 521 ;
522 [label="gini = 0.083\nsamples = 2\nvalue = [[0, 2]\n[0, 2]\n[0, 2]\n[0, 2]\n[0, 2]\n[1, 1]]", fillcolor="#ea985d"] ;
520 -> 522 ;
523 [label="gini = 0.0\nsamples = 4\nvalue = [[0, 4]\n[0, 4]\n[0, 4]\n[0, 4]\n[0, 4]\n[0, 4]]", fillcolor="#e58139"] ;
517 -> 523 ;
524 [label="gini = 0.0\nsamples = 8\nvalue = [[0, 8]\n[0, 8]\n[0, 8]\n[0, 8]\n[0, 8]\n[0, 8]]", fillcolor="#e58139"] ;
516 -> 524 ;
525 [label="x[8] <= 0.5\ngini = 0.159\nsamples = 23\nvalue = [[0, 23]\n[0, 23]\n[1, 22]\n[1, 22]\n[4, 19]\n[11, 12]]", fillcolor="#eeac7d"] ;
491 -> 525 ;
526 [label="gini = 0.0\nsamples = 5\nvalue = [[0, 5]\n[0, 5]\n[0, 5]\n[0, 5]\n[0, 5]\n[5, 0]]", fillcolor="#e58139"] ;
525 -> 526 ;
527 [label="x[14] <= 3.5\ngini = 0.167\nsamples = 18\nvalue = [[0, 18]\n[0, 18]\n[1, 17]\n[1, 17]\n[4, 14]\n[6, 12]]", fillcolor="#eeaf81"] ;
525 -> 527 ;
528 [label="x[3] <= 0.5\ngini = 0.099\nsamples = 11\nvalue = [[0, 11]\n[0, 11]\n[0, 11]\n[0, 11]\n[2, 9]\n[2, 9]]", fillcolor="#eb9c64"] ;
527 -> 528 ;
529 [label="gini = 0.0\nsamples = 1\nvalue = [[0, 1]\n[0, 1]\n[0, 1]\n[0, 1]\n[1, 0]\n[0, 1]]", fillcolor="#e58139"] ;
528 -> 529 ;
530 [label="x[12] <= 120.5\ngini = 0.083\nsamples = 10\nvalue = [[0, 10]\n[0, 10]\n[0, 10]\n[0, 10]\n[1, 9]\n[2, 8]]", fillcolor="#ea985d"] ;
528 -> 530 ;
531 [label="x[12] <= 108.5\ngini = 0.066\nsamples = 9\nvalue = [[0, 9]\n[0, 9]\n[0, 9]\n[0, 9]\n[1, 8]\n[1, 8]]", fillcolor="#e99355"] ;
530 -> 531 ;
532 [label="x[14] <= 0.5\ngini = 0.167\nsamples = 2\nvalue = [[0, 2]\n[0, 2]\n[0, 2]\n[0, 2]\n[1, 1]\n[1, 1]]", fillcolor="#eeaf81"] ;
531 -> 532 ;
533 [label="gini = 0.0\nsamples = 1\nvalue = [[0, 1]\n[0, 1]\n[0, 1]\n[0, 1]\n[1, 0]\n[1, 0]]", fillcolor="#e58139"] ;
532 -> 533 ;
534 [label="gini = 0.0\nsamples = 1\nvalue = [[0, 1]\n[0, 1]\n[0, 1]\n[0, 1]\n[0, 1]\n[0, 1]]", fillcolor="#e58139"] ;
532 -> 534 ;
535 [label="gini = 0.0\nsamples = 7\nvalue = [[0, 7]\n[0, 7]\n[0, 7]\n[0, 7]\n[0, 7]\n[0, 7]]", fillcolor="#e58139"] ;
531 -> 535 ;
536 [label="gini = 0.0\nsamples = 1\nvalue = [[0, 1]\n[0, 1]\n[0, 1]\n[0, 1]\n[0, 1]\n[1, 0]]", fillcolor="#e58139"] ;
530 -> 536 ;
537 [label="x[12] <= 114.5\ngini = 0.231\nsamples = 7\nvalue = [[0, 7]\n[0, 7]\n[1, 6]\n[1, 6]\n[2, 5]\n[4, 3]]", fillcolor="#f2c09c"] ;
527 -> 537 ;
538 [label="x[12] <= 111.5\ngini = 0.222\nsamples = 3\nvalue = [[0, 3]\n[0, 3]\n[1, 2]\n[1, 2]\n[1, 2]\n[3, 0]]", fillcolor="#f2be98"] ;
537 -> 538 ;
539 [label="gini = 0.0\nsamples = 2\nvalue = [[0, 2]\n[0, 2]\n[0, 2]\n[0, 2]\n[0, 2]\n[2, 0]]", fillcolor="#e58139"] ;
538 -> 539 ;
540 [label="gini = 0.0\nsamples = 1\nvalue = [[0, 1]\n[0, 1]\n[1, 0]\n[1, 0]\n[1, 0]\n[1, 0]]", fillcolor="#e58139"] ;
538 -> 540 ;
541 [label="x[3] <= 0.5\ngini = 0.125\nsamples = 4\nvalue = [[0, 4]\n[0, 4]\n[0, 4]\n[0, 4]\n[1, 3]\n[1, 3]]", fillcolor="#eca36f"] ;
537 -> 541 ;
542 [label="x[12] <= 116.5\ngini = 0.167\nsamples = 2\nvalue = [[0, 2]\n[0, 2]\n[0, 2]\n[0, 2]\n[1, 1]\n[1, 1]]", fillcolor="#eeaf81"] ;
541 -> 542 ;
543 [label="gini = 0.0\nsamples = 1\nvalue = [[0, 1]\n[0, 1]\n[0, 1]\n[0, 1]\n[1, 0]\n[1, 0]]", fillcolor="#e58139"] ;
542 -> 543 ;
544 [label="gini = 0.0\nsamples = 1\nvalue = [[0, 1]\n[0, 1]\n[0, 1]\n[0, 1]\n[0, 1]\n[0, 1]]", fillcolor="#e58139"] ;
542 -> 544 ;
545 [label="gini = 0.0\nsamples = 2\nvalue = [[0, 2]\n[0, 2]\n[0, 2]\n[0, 2]\n[0, 2]\n[0, 2]]", fillcolor="#e58139"] ;
541 -> 545 ;
546 [label="x[14] <= 0.5\ngini = 0.242\nsamples = 19\nvalue = [[0, 19]\n[0, 19]\n[1, 18]\n[6, 13]\n[6, 13]\n[8, 11]]", fillcolor="#f3c3a1"] ;
384 -> 546 ;
547 [label="x[12] <= 127.0\ngini = 0.167\nsamples = 2\nvalue = [[0, 2]\n[0, 2]\n[0, 2]\n[2, 0]\n[1, 1]\n[1, 1]]", fillcolor="#eeaf81"] ;
546 -> 547 ;
548 [label="gini = 0.0\nsamples = 1\nvalue = [[0, 1]\n[0, 1]\n[0, 1]\n[1, 0]\n[1, 0]\n[1, 0]]", fillcolor="#e58139"] ;
547 -> 548 ;
549 [label="gini = 0.0\nsamples = 1\nvalue = [[0, 1]\n[0, 1]\n[0, 1]\n[1, 0]\n[0, 1]\n[0, 1]]", fillcolor="#e58139"] ;
547 -> 549 ;
550 [label="x[12] <= 125.5\ngini = 0.228\nsamples = 17\nvalue = [[0, 17]\n[0, 17]\n[1, 16]\n[4, 13]\n[5, 12]\n[7, 10]]", fillcolor="#f2bf9b"] ;
546 -> 550 ;
551 [label="x[9] <= 0.5\ngini = 0.273\nsamples = 10\nvalue = [[0, 10]\n[0, 10]\n[1, 9]\n[4, 6]\n[4, 6]\n[5, 5]]", fillcolor="#f4ccae"] ;
550 -> 551 ;
552 [label="x[14] <= 3.5\ngini = 0.23\nsamples = 9\nvalue = [[0, 9]\n[0, 9]\n[0, 9]\n[3, 6]\n[3, 6]\n[4, 5]]", fillcolor="#f2c09c"] ;
551 -> 552 ;
553 [label="x[14] <= 1.5\ngini = 0.24\nsamples = 5\nvalue = [[0, 5]\n[0, 5]\n[0, 5]\n[3, 2]\n[3, 2]\n[3, 2]]", fillcolor="#f3c3a0"] ;
552 -> 553 ;
554 [label="gini = 0.0\nsamples = 1\nvalue = [[0, 1]\n[0, 1]\n[0, 1]\n[0, 1]\n[0, 1]\n[0, 1]]", fillcolor="#e58139"] ;
553 -> 554 ;
555 [label="x[3] <= 0.5\ngini = 0.188\nsamples = 4\nvalue = [[0, 4]\n[0, 4]\n[0, 4]\n[3, 1]\n[3, 1]\n[3, 1]]", fillcolor="#f0b48a"] ;
553 -> 555 ;
556 [label="gini = 0.25\nsamples = 2\nvalue = [[0, 2]\n[0, 2]\n[0, 2]\n[1, 1]\n[1, 1]\n[1, 1]]", fillcolor="#f3c5a4"] ;
555 -> 556 ;
557 [label="gini = 0.0\nsamples = 2\nvalue = [[0, 2]\n[0, 2]\n[0, 2]\n[2, 0]\n[2, 0]\n[2, 0]]", fillcolor="#e58139"] ;
555 -> 557 ;
558 [label="x[13] <= 0.5\ngini = 0.062\nsamples = 4\nvalue = [[0, 4]\n[0, 4]\n[0, 4]\n[0, 4]\n[0, 4]\n[1, 3]]", fillcolor="#e99254"] ;
552 -> 558 ;
559 [label="gini = 0.0\nsamples = 2\nvalue = [[0, 2]\n[0, 2]\n[0, 2]\n[0, 2]\n[0, 2]\n[0, 2]]", fillcolor="#e58139"] ;
558 -> 559 ;
560 [label="x[14] <= 5.5\ngini = 0.083\nsamples = 2\nvalue = [[0, 2]\n[0, 2]\n[0, 2]\n[0, 2]\n[0, 2]\n[1, 1]]", fillcolor="#ea985d"] ;
558 -> 560 ;
561 [label="gini = 0.0\nsamples = 1\nvalue = [[0, 1]\n[0, 1]\n[0, 1]\n[0, 1]\n[0, 1]\n[1, 0]]", fillcolor="#e58139"] ;
560 -> 561 ;
562 [label="gini = 0.0\nsamples = 1\nvalue = [[0, 1]\n[0, 1]\n[0, 1]\n[0, 1]\n[0, 1]\n[0, 1]]", fillcolor="#e58139"] ;
560 -> 562 ;
563 [label="gini = 0.0\nsamples = 1\nvalue = [[0, 1]\n[0, 1]\n[1, 0]\n[1, 0]\n[1, 0]\n[1, 0]]", fillcolor="#e58139"] ;
551 -> 563 ;
564 [label="x[0] <= 0.5\ngini = 0.109\nsamples = 7\nvalue = [[0, 7]\n[0, 7]\n[0, 7]\n[0, 7]\n[1, 6]\n[2, 5]]", fillcolor="#eb9f68"] ;
550 -> 564 ;
565 [label="x[12] <= 126.5\ngini = 0.148\nsamples = 3\nvalue = [[0, 3]\n[0, 3]\n[0, 3]\n[0, 3]\n[1, 2]\n[2, 1]]", fillcolor="#eda979"] ;
564 -> 565 ;
566 [label="gini = 0.0\nsamples = 1\nvalue = [[0, 1]\n[0, 1]\n[0, 1]\n[0, 1]\n[0, 1]\n[0, 1]]", fillcolor="#e58139"] ;
565 -> 566 ;
567 [label="x[14] <= 3.5\ngini = 0.083\nsamples = 2\nvalue = [[0, 2]\n[0, 2]\n[0, 2]\n[0, 2]\n[1, 1]\n[2, 0]]", fillcolor="#ea985d"] ;
565 -> 567 ;
568 [label="gini = 0.0\nsamples = 1\nvalue = [[0, 1]\n[0, 1]\n[0, 1]\n[0, 1]\n[0, 1]\n[1, 0]]", fillcolor="#e58139"] ;
567 -> 568 ;
569 [label="gini = 0.0\nsamples = 1\nvalue = [[0, 1]\n[0, 1]\n[0, 1]\n[0, 1]\n[1, 0]\n[1, 0]]", fillcolor="#e58139"] ;
567 -> 569 ;
570 [label="gini = 0.0\nsamples = 4\nvalue = [[0, 4]\n[0, 4]\n[0, 4]\n[0, 4]\n[0, 4]\n[0, 4]]", fillcolor="#e58139"] ;
564 -> 570 ;
571 [label="x[2] <= 0.5\ngini = 0.201\nsamples = 37\nvalue = [[0, 37]\n[0, 37]\n[2, 35]\n[6, 31]\n[10, 27]\n[25, 12]]", fillcolor="#f0b88f"] ;
3 -> 571 ;
572 [label="x[7] <= 0.5\ngini = 0.216\nsamples = 18\nvalue = [[0, 18]\n[0, 18]\n[2, 16]\n[4, 14]\n[7, 11]\n[15, 3]]", fillcolor="#f1bc96"] ;
571 -> 572 ;
573 [label="x[12] <= 130.5\ngini = 0.154\nsamples = 13\nvalue = [[0, 13]\n[0, 13]\n[0, 13]\n[1, 12]\n[4, 9]\n[10, 3]]", fillcolor="#eeab7b"] ;
572 -> 573 ;
574 [label="gini = 0.0\nsamples = 1\nvalue = [[0, 1]\n[0, 1]\n[0, 1]\n[0, 1]\n[0, 1]\n[0, 1]]", fillcolor="#e58139"] ;
573 -> 574 ;
575 [label="x[12] <= 132.5\ngini = 0.146\nsamples = 12\nvalue = [[0, 12]\n[0, 12]\n[0, 12]\n[1, 11]\n[4, 8]\n[10, 2]]", fillcolor="#eda978"] ;
573 -> 575 ;
576 [label="gini = 0.0\nsamples = 2\nvalue = [[0, 2]\n[0, 2]\n[0, 2]\n[0, 2]\n[2, 0]\n[2, 0]]", fillcolor="#e58139"] ;
575 -> 576 ;
577 [label="x[12] <= 141.0\ngini = 0.137\nsamples = 10\nvalue = [[0, 10]\n[0, 10]\n[0, 10]\n[1, 9]\n[2, 8]\n[8, 2]]", fillcolor="#eda674"] ;
575 -> 577 ;
578 [label="x[12] <= 138.5\ngini = 0.123\nsamples = 9\nvalue = [[0, 9]\n[0, 9]\n[0, 9]\n[1, 8]\n[2, 7]\n[8, 1]]", fillcolor="#eca36e"] ;
577 -> 578 ;
579 [label="x[14] <= 2.0\ngini = 0.109\nsamples = 8\nvalue = [[0, 8]\n[0, 8]\n[0, 8]\n[1, 7]\n[1, 7]\n[7, 1]]", fillcolor="#eb9f68"] ;
578 -> 579 ;
580 [label="x[12] <= 134.5\ngini = 0.167\nsamples = 2\nvalue = [[0, 2]\n[0, 2]\n[0, 2]\n[1, 1]\n[1, 1]\n[2, 0]]", fillcolor="#eeaf81"] ;
579 -> 580 ;
581 [label="gini = 0.0\nsamples = 1\nvalue = [[0, 1]\n[0, 1]\n[0, 1]\n[0, 1]\n[0, 1]\n[1, 0]]", fillcolor="#e58139"] ;
580 -> 581 ;
582 [label="gini = 0.0\nsamples = 1\nvalue = [[0, 1]\n[0, 1]\n[0, 1]\n[1, 0]\n[1, 0]\n[1, 0]]", fillcolor="#e58139"] ;
580 -> 582 ;
583 [label="x[12] <= 134.0\ngini = 0.046\nsamples = 6\nvalue = [[0, 6]\n[0, 6]\n[0, 6]\n[0, 6]\n[0, 6]\n[5, 1]]", fillcolor="#e88e4d"] ;
579 -> 583 ;
584 [label="gini = 0.0\nsamples = 1\nvalue = [[0, 1]\n[0, 1]\n[0, 1]\n[0, 1]\n[0, 1]\n[0, 1]]", fillcolor="#e58139"] ;
583 -> 584 ;
585 [label="gini = 0.0\nsamples = 5\nvalue = [[0, 5]\n[0, 5]\n[0, 5]\n[0, 5]\n[0, 5]\n[5, 0]]", fillcolor="#e58139"] ;
583 -> 585 ;
586 [label="gini = 0.0\nsamples = 1\nvalue = [[0, 1]\n[0, 1]\n[0, 1]\n[0, 1]\n[1, 0]\n[1, 0]]", fillcolor="#e58139"] ;
578 -> 586 ;
587 [label="gini = 0.0\nsamples = 1\nvalue = [[0, 1]\n[0, 1]\n[0, 1]\n[0, 1]\n[0, 1]\n[0, 1]]", fillcolor="#e58139"] ;
577 -> 587 ;
588 [label="x[8] <= 0.5\ngini = 0.24\nsamples = 5\nvalue = [[0, 5]\n[0, 5]\n[2, 3]\n[3, 2]\n[3, 2]\n[5, 0]]", fillcolor="#f3c3a0"] ;
572 -> 588 ;
589 [label="gini = 0.0\nsamples = 2\nvalue = [[0, 2]\n[0, 2]\n[2, 0]\n[2, 0]\n[2, 0]\n[2, 0]]", fillcolor="#e58139"] ;
588 -> 589 ;
590 [label="x[14] <= 5.0\ngini = 0.148\nsamples = 3\nvalue = [[0, 3]\n[0, 3]\n[0, 3]\n[1, 2]\n[1, 2]\n[3, 0]]", fillcolor="#eda979"] ;
588 -> 590 ;
591 [label="gini = 0.0\nsamples = 2\nvalue = [[0, 2]\n[0, 2]\n[0, 2]\n[0, 2]\n[0, 2]\n[2, 0]]", fillcolor="#e58139"] ;
590 -> 591 ;
592 [label="gini = 0.0\nsamples = 1\nvalue = [[0, 1]\n[0, 1]\n[0, 1]\n[1, 0]\n[1, 0]\n[1, 0]]", fillcolor="#e58139"] ;
590 -> 592 ;
593 [label="x[12] <= 137.0\ngini = 0.159\nsamples = 19\nvalue = [[0, 19]\n[0, 19]\n[0, 19]\n[2, 17]\n[3, 16]\n[10, 9]]", fillcolor="#eeac7d"] ;
571 -> 593 ;
594 [label="x[5] <= 0.5\ngini = 0.124\nsamples = 15\nvalue = [[0, 15]\n[0, 15]\n[0, 15]\n[1, 14]\n[1, 14]\n[7, 8]]", fillcolor="#eca36e"] ;
593 -> 594 ;
595 [label="x[14] <= 5.5\ngini = 0.14\nsamples = 9\nvalue = [[0, 9]\n[0, 9]\n[0, 9]\n[1, 8]\n[1, 8]\n[6, 3]]", fillcolor="#eda775"] ;
594 -> 595 ;
596 [label="x[14] <= 1.5\ngini = 0.078\nsamples = 8\nvalue = [[0, 8]\n[0, 8]\n[0, 8]\n[0, 8]\n[0, 8]\n[5, 3]]", fillcolor="#e9965b"] ;
595 -> 596 ;
597 [label="x[12] <= 133.0\ngini = 0.053\nsamples = 5\nvalue = [[0, 5]\n[0, 5]\n[0, 5]\n[0, 5]\n[0, 5]\n[4, 1]]", fillcolor="#e89050"] ;
596 -> 597 ;
598 [label="gini = 0.0\nsamples = 1\nvalue = [[0, 1]\n[0, 1]\n[0, 1]\n[0, 1]\n[0, 1]\n[0, 1]]", fillcolor="#e58139"] ;
597 -> 598 ;
599 [label="gini = 0.0\nsamples = 4\nvalue = [[0, 4]\n[0, 4]\n[0, 4]\n[0, 4]\n[0, 4]\n[4, 0]]", fillcolor="#e58139"] ;
597 -> 599 ;
600 [label="x[3] <= 0.5\ngini = 0.074\nsamples = 3\nvalue = [[0, 3]\n[0, 3]\n[0, 3]\n[0, 3]\n[0, 3]\n[1, 2]]", fillcolor="#e99559"] ;
596 -> 600 ;
601 [label="gini = 0.0\nsamples = 1\nvalue = [[0, 1]\n[0, 1]\n[0, 1]\n[0, 1]\n[0, 1]\n[1, 0]]", fillcolor="#e58139"] ;
600 -> 601 ;
602 [label="gini = 0.0\nsamples = 2\nvalue = [[0, 2]\n[0, 2]\n[0, 2]\n[0, 2]\n[0, 2]\n[0, 2]]", fillcolor="#e58139"] ;
600 -> 602 ;
603 [label="gini = 0.0\nsamples = 1\nvalue = [[0, 1]\n[0, 1]\n[0, 1]\n[1, 0]\n[1, 0]\n[1, 0]]", fillcolor="#e58139"] ;
595 -> 603 ;
604 [label="x[0] <= 0.5\ngini = 0.046\nsamples = 6\nvalue = [[0, 6]\n[0, 6]\n[0, 6]\n[0, 6]\n[0, 6]\n[1, 5]]", fillcolor="#e88e4d"] ;
594 -> 604 ;
605 [label="x[14] <= 3.0\ngini = 0.083\nsamples = 2\nvalue = [[0, 2]\n[0, 2]\n[0, 2]\n[0, 2]\n[0, 2]\n[1, 1]]", fillcolor="#ea985d"] ;
604 -> 605 ;
606 [label="gini = 0.0\nsamples = 1\nvalue = [[0, 1]\n[0, 1]\n[0, 1]\n[0, 1]\n[0, 1]\n[1, 0]]", fillcolor="#e58139"] ;
605 -> 606 ;
607 [label="gini = 0.0\nsamples = 1\nvalue = [[0, 1]\n[0, 1]\n[0, 1]\n[0, 1]\n[0, 1]\n[0, 1]]", fillcolor="#e58139"] ;
605 -> 607 ;
608 [label="gini = 0.0\nsamples = 4\nvalue = [[0, 4]\n[0, 4]\n[0, 4]\n[0, 4]\n[0, 4]\n[0, 4]]", fillcolor="#e58139"] ;
604 -> 608 ;
609 [label="x[0] <= 0.5\ngini = 0.208\nsamples = 4\nvalue = [[0, 4]\n[0, 4]\n[0, 4]\n[1, 3]\n[2, 2]\n[3, 1]]", fillcolor="#f1ba92"] ;
593 -> 609 ;
610 [label="x[14] <= 5.5\ngini = 0.083\nsamples = 2\nvalue = [[0, 2]\n[0, 2]\n[0, 2]\n[0, 2]\n[0, 2]\n[1, 1]]", fillcolor="#ea985d"] ;
609 -> 610 ;
611 [label="gini = 0.0\nsamples = 1\nvalue = [[0, 1]\n[0, 1]\n[0, 1]\n[0, 1]\n[0, 1]\n[0, 1]]", fillcolor="#e58139"] ;
610 -> 611 ;
612 [label="gini = 0.0\nsamples = 1\nvalue = [[0, 1]\n[0, 1]\n[0, 1]\n[0, 1]\n[0, 1]\n[1, 0]]", fillcolor="#e58139"] ;
610 -> 612 ;
613 [label="x[6] <= 0.5\ngini = 0.083\nsamples = 2\nvalue = [[0, 2]\n[0, 2]\n[0, 2]\n[1, 1]\n[2, 0]\n[2, 0]]", fillcolor="#ea985d"] ;
609 -> 613 ;
614 [label="gini = 0.0\nsamples = 1\nvalue = [[0, 1]\n[0, 1]\n[0, 1]\n[1, 0]\n[1, 0]\n[1, 0]]", fillcolor="#e58139"] ;
613 -> 614 ;
615 [label="gini = 0.0\nsamples = 1\nvalue = [[0, 1]\n[0, 1]\n[0, 1]\n[0, 1]\n[1, 0]\n[1, 0]]", fillcolor="#e58139"] ;
613 -> 615 ;
616 [label="x[12] <= 32.5\ngini = 0.28\nsamples = 574\nvalue = [[0, 574]\n[28, 546]\n[82, 492]\n[131, 443]\n[253, 321]\n[286, 288]]", fillcolor="#f5ceb1"] ;
2 -> 616 ;
617 [label="x[12] <= 25.0\ngini = 0.198\nsamples = 73\nvalue = [[0, 73]\n[0, 73]\n[3, 70]\n[11, 62]\n[30, 43]\n[55, 18]]", fillcolor="#f0b78e"] ;
616 -> 617 ;
618 [label="x[12] <= 23.0\ngini = 0.197\nsamples = 50\nvalue = [[0, 50]\n[0, 50]\n[3, 47]\n[5, 45]\n[19, 31]\n[35, 15]]", fillcolor="#f0b78e"] ;
617 -> 618 ;
619 [label="x[12] <= 20.5\ngini = 0.196\nsamples = 48\nvalue = [[0, 48]\n[0, 48]\n[3, 45]\n[5, 43]\n[19, 29]\n[35, 13]]", fillcolor="#f0b78d"] ;
618 -> 619 ;
620 [label="x[14] <= 1.5\ngini = 0.188\nsamples = 45\nvalue = [[0, 45]\n[0, 45]\n[2, 43]\n[4, 41]\n[17, 28]\n[32, 13]]", fillcolor="#f0b48a"] ;
619 -> 620 ;
621 [label="x[3] <= 0.5\ngini = 0.165\nsamples = 9\nvalue = [[0, 9]\n[0, 9]\n[0, 9]\n[0, 9]\n[5, 4]\n[5, 4]]", fillcolor="#eeae80"] ;
620 -> 621 ;
622 [label="x[12] <= 6.5\ngini = 0.156\nsamples = 8\nvalue = [[0, 8]\n[0, 8]\n[0, 8]\n[0, 8]\n[5, 3]\n[5, 3]]", fillcolor="#eeac7c"] ;
621 -> 622 ;
623 [label="gini = 0.0\nsamples = 3\nvalue = [[0, 3]\n[0, 3]\n[0, 3]\n[0, 3]\n[3, 0]\n[3, 0]]", fillcolor="#e58139"] ;
622 -> 623 ;
624 [label="x[14] <= 0.5\ngini = 0.16\nsamples = 5\nvalue = [[0, 5]\n[0, 5]\n[0, 5]\n[0, 5]\n[2, 3]\n[2, 3]]", fillcolor="#eead7e"] ;
622 -> 624 ;
625 [label="gini = 0.0\nsamples = 2\nvalue = [[0, 2]\n[0, 2]\n[0, 2]\n[0, 2]\n[0, 2]\n[0, 2]]", fillcolor="#e58139"] ;
624 -> 625 ;
626 [label="x[12] <= 16.5\ngini = 0.148\nsamples = 3\nvalue = [[0, 3]\n[0, 3]\n[0, 3]\n[0, 3]\n[2, 1]\n[2, 1]]", fillcolor="#eda979"] ;
624 -> 626 ;
627 [label="gini = 0.0\nsamples = 2\nvalue = [[0, 2]\n[0, 2]\n[0, 2]\n[0, 2]\n[2, 0]\n[2, 0]]", fillcolor="#e58139"] ;
626 -> 627 ;
628 [label="gini = 0.0\nsamples = 1\nvalue = [[0, 1]\n[0, 1]\n[0, 1]\n[0, 1]\n[0, 1]\n[0, 1]]", fillcolor="#e58139"] ;
626 -> 628 ;
629 [label="gini = 0.0\nsamples = 1\nvalue = [[0, 1]\n[0, 1]\n[0, 1]\n[0, 1]\n[0, 1]\n[0, 1]]", fillcolor="#e58139"] ;
621 -> 629 ;
630 [label="x[12] <= 18.5\ngini = 0.187\nsamples = 36\nvalue = [[0, 36]\n[0, 36]\n[2, 34]\n[4, 32]\n[12, 24]\n[27, 9]]", fillcolor="#f0b489"] ;
620 -> 630 ;
631 [label="x[12] <= 4.5\ngini = 0.18\nsamples = 35\nvalue = [[0, 35]\n[0, 35]\n[2, 33]\n[3, 32]\n[11, 24]\n[26, 9]]", fillcolor="#efb286"] ;
630 -> 631 ;
632 [label="x[6] <= 0.5\ngini = 0.224\nsamples = 17\nvalue = [[0, 17]\n[0, 17]\n[2, 15]\n[3, 14]\n[7, 10]\n[13, 4]]", fillcolor="#f2be99"] ;
631 -> 632 ;
633 [label="x[4] <= 0.5\ngini = 0.219\nsamples = 14\nvalue = [[0, 14]\n[0, 14]\n[2, 12]\n[3, 11]\n[6, 8]\n[12, 2]]", fillcolor="#f1bd97"] ;
632 -> 633 ;
634 [label="x[12] <= 0.5\ngini = 0.192\nsamples = 12\nvalue = [[0, 12]\n[0, 12]\n[1, 11]\n[2, 10]\n[4, 8]\n[10, 2]]", fillcolor="#f0b68c"] ;
633 -> 634 ;
635 [label="gini = 0.0\nsamples = 1\nvalue = [[0, 1]\n[0, 1]\n[0, 1]\n[0, 1]\n[0, 1]\n[0, 1]]", fillcolor="#e58139"] ;
634 -> 635 ;
636 [label="x[14] <= 5.0\ngini = 0.182\nsamples = 11\nvalue = [[0, 11]\n[0, 11]\n[1, 10]\n[2, 9]\n[4, 7]\n[10, 1]]", fillcolor="#efb387"] ;
634 -> 636 ;
637 [label="x[14] <= 3.5\ngini = 0.206\nsamples = 9\nvalue = [[0, 9]\n[0, 9]\n[1, 8]\n[2, 7]\n[4, 5]\n[8, 1]]", fillcolor="#f1b991"] ;
636 -> 637 ;
638 [label="x[12] <= 2.5\ngini = 0.083\nsamples = 4\nvalue = [[0, 4]\n[0, 4]\n[0, 4]\n[0, 4]\n[2, 2]\n[4, 0]]", fillcolor="#ea985d"] ;
637 -> 638 ;
639 [label="gini = 0.0\nsamples = 2\nvalue = [[0, 2]\n[0, 2]\n[0, 2]\n[0, 2]\n[2, 0]\n[2, 0]]", fillcolor="#e58139"] ;
638 -> 639 ;
640 [label="gini = 0.0\nsamples = 2\nvalue = [[0, 2]\n[0, 2]\n[0, 2]\n[0, 2]\n[0, 2]\n[2, 0]]", fillcolor="#e58139"] ;
638 -> 640 ;
641 [label="x[12] <= 2.5\ngini = 0.267\nsamples = 5\nvalue = [[0, 5]\n[0, 5]\n[1, 4]\n[2, 3]\n[2, 3]\n[4, 1]]", fillcolor="#f4caac"] ;
637 -> 641 ;
642 [label="x[12] <= 1.5\ngini = 0.25\nsamples = 4\nvalue = [[0, 4]\n[0, 4]\n[1, 3]\n[1, 3]\n[1, 3]\n[3, 1]]", fillcolor="#f3c5a4"] ;
641 -> 642 ;
643 [label="gini = 0.222\nsamples = 3\nvalue = [[0, 3]\n[0, 3]\n[1, 2]\n[1, 2]\n[1, 2]\n[3, 0]]", fillcolor="#f2be98"] ;
642 -> 643 ;
644 [label="gini = 0.0\nsamples = 1\nvalue = [[0, 1]\n[0, 1]\n[0, 1]\n[0, 1]\n[0, 1]\n[0, 1]]", fillcolor="#e58139"] ;
642 -> 644 ;
645 [label="gini = 0.0\nsamples = 1\nvalue = [[0, 1]\n[0, 1]\n[0, 1]\n[1, 0]\n[1, 0]\n[1, 0]]", fillcolor="#e58139"] ;
641 -> 645 ;
646 [label="gini = 0.0\nsamples = 2\nvalue = [[0, 2]\n[0, 2]\n[0, 2]\n[0, 2]\n[0, 2]\n[2, 0]]", fillcolor="#e58139"] ;
636 -> 646 ;
647 [label="x[5] <= 0.5\ngini = 0.167\nsamples = 2\nvalue = [[0, 2]\n[0, 2]\n[1, 1]\n[1, 1]\n[2, 0]\n[2, 0]]", fillcolor="#eeaf81"] ;
633 -> 647 ;
648 [label="gini = 0.0\nsamples = 1\nvalue = [[0, 1]\n[0, 1]\n[1, 0]\n[1, 0]\n[1, 0]\n[1, 0]]", fillcolor="#e58139"] ;
647 -> 648 ;
649 [label="gini = 0.0\nsamples = 1\nvalue = [[0, 1]\n[0, 1]\n[0, 1]\n[0, 1]\n[1, 0]\n[1, 0]]", fillcolor="#e58139"] ;
647 -> 649 ;
650 [label="x[1] <= 0.5\ngini = 0.148\nsamples = 3\nvalue = [[0, 3]\n[0, 3]\n[0, 3]\n[0, 3]\n[1, 2]\n[1, 2]]", fillcolor="#eda979"] ;
632 -> 650 ;
651 [label="gini = 0.0\nsamples = 1\nvalue = [[0, 1]\n[0, 1]\n[0, 1]\n[0, 1]\n[1, 0]\n[1, 0]]", fillcolor="#e58139"] ;
650 -> 651 ;
652 [label="gini = 0.0\nsamples = 2\nvalue = [[0, 2]\n[0, 2]\n[0, 2]\n[0, 2]\n[0, 2]\n[0, 2]]", fillcolor="#e58139"] ;
650 -> 652 ;
653 [label="x[12] <= 9.5\ngini = 0.124\nsamples = 18\nvalue = [[0, 18]\n[0, 18]\n[0, 18]\n[0, 18]\n[4, 14]\n[13, 5]]", fillcolor="#eca36e"] ;
631 -> 653 ;
654 [label="x[14] <= 4.5\ngini = 0.12\nsamples = 8\nvalue = [[0, 8]\n[0, 8]\n[0, 8]\n[0, 8]\n[1, 7]\n[4, 4]]", fillcolor="#eca26c"] ;
653 -> 654 ;
655 [label="x[0] <= 0.5\ngini = 0.062\nsamples = 4\nvalue = [[0, 4]\n[0, 4]\n[0, 4]\n[0, 4]\n[0, 4]\n[1, 3]]", fillcolor="#e99254"] ;
654 -> 655 ;
656 [label="gini = 0.0\nsamples = 3\nvalue = [[0, 3]\n[0, 3]\n[0, 3]\n[0, 3]\n[0, 3]\n[0, 3]]", fillcolor="#e58139"] ;
655 -> 656 ;
657 [label="gini = 0.0\nsamples = 1\nvalue = [[0, 1]\n[0, 1]\n[0, 1]\n[0, 1]\n[0, 1]\n[1, 0]]", fillcolor="#e58139"] ;
655 -> 657 ;
658 [label="x[12] <= 6.0\ngini = 0.125\nsamples = 4\nvalue = [[0, 4]\n[0, 4]\n[0, 4]\n[0, 4]\n[1, 3]\n[3, 1]]", fillcolor="#eca36f"] ;
654 -> 658 ;
659 [label="x[14] <= 5.5\ngini = 0.083\nsamples = 2\nvalue = [[0, 2]\n[0, 2]\n[0, 2]\n[0, 2]\n[1, 1]\n[2, 0]]", fillcolor="#ea985d"] ;
658 -> 659 ;
660 [label="gini = 0.0\nsamples = 1\nvalue = [[0, 1]\n[0, 1]\n[0, 1]\n[0, 1]\n[1, 0]\n[1, 0]]", fillcolor="#e58139"] ;
659 -> 660 ;
661 [label="gini = 0.0\nsamples = 1\nvalue = [[0, 1]\n[0, 1]\n[0, 1]\n[0, 1]\n[0, 1]\n[1, 0]]", fillcolor="#e58139"] ;
659 -> 661 ;
662 [label="gini = 0.083\nsamples = 2\nvalue = [[0, 2]\n[0, 2]\n[0, 2]\n[0, 2]\n[0, 2]\n[1, 1]]", fillcolor="#ea985d"] ;
658 -> 662 ;
663 [label="x[12] <= 10.5\ngini = 0.1\nsamples = 10\nvalue = [[0, 10]\n[0, 10]\n[0, 10]\n[0, 10]\n[3, 7]\n[9, 1]]", fillcolor="#eb9c64"] ;
653 -> 663 ;
664 [label="gini = 0.0\nsamples = 2\nvalue = [[0, 2]\n[0, 2]\n[0, 2]\n[0, 2]\n[2, 0]\n[2, 0]]", fillcolor="#e58139"] ;
663 -> 664 ;
665 [label="x[12] <= 16.0\ngini = 0.073\nsamples = 8\nvalue = [[0, 8]\n[0, 8]\n[0, 8]\n[0, 8]\n[1, 7]\n[7, 1]]", fillcolor="#e99558"] ;
663 -> 665 ;
666 [label="x[14] <= 3.5\ngini = 0.046\nsamples = 6\nvalue = [[0, 6]\n[0, 6]\n[0, 6]\n[0, 6]\n[1, 5]\n[6, 0]]", fillcolor="#e88e4d"] ;
665 -> 666 ;
667 [label="gini = 0.0\nsamples = 3\nvalue = [[0, 3]\n[0, 3]\n[0, 3]\n[0, 3]\n[0, 3]\n[3, 0]]", fillcolor="#e58139"] ;
666 -> 667 ;
668 [label="x[13] <= 0.5\ngini = 0.074\nsamples = 3\nvalue = [[0, 3]\n[0, 3]\n[0, 3]\n[0, 3]\n[1, 2]\n[3, 0]]", fillcolor="#e99559"] ;
666 -> 668 ;
669 [label="x[12] <= 11.5\ngini = 0.083\nsamples = 2\nvalue = [[0, 2]\n[0, 2]\n[0, 2]\n[0, 2]\n[1, 1]\n[2, 0]]", fillcolor="#ea985d"] ;
668 -> 669 ;
670 [label="gini = 0.0\nsamples = 1\nvalue = [[0, 1]\n[0, 1]\n[0, 1]\n[0, 1]\n[0, 1]\n[1, 0]]", fillcolor="#e58139"] ;
669 -> 670 ;
671 [label="gini = 0.0\nsamples = 1\nvalue = [[0, 1]\n[0, 1]\n[0, 1]\n[0, 1]\n[1, 0]\n[1, 0]]", fillcolor="#e58139"] ;
669 -> 671 ;
672 [label="gini = 0.0\nsamples = 1\nvalue = [[0, 1]\n[0, 1]\n[0, 1]\n[0, 1]\n[0, 1]\n[1, 0]]", fillcolor="#e58139"] ;
668 -> 672 ;
673 [label="x[14] <= 2.5\ngini = 0.083\nsamples = 2\nvalue = [[0, 2]\n[0, 2]\n[0, 2]\n[0, 2]\n[0, 2]\n[1, 1]]", fillcolor="#ea985d"] ;
665 -> 673 ;
674 [label="gini = 0.0\nsamples = 1\nvalue = [[0, 1]\n[0, 1]\n[0, 1]\n[0, 1]\n[0, 1]\n[1, 0]]", fillcolor="#e58139"] ;
673 -> 674 ;
675 [label="gini = 0.0\nsamples = 1\nvalue = [[0, 1]\n[0, 1]\n[0, 1]\n[0, 1]\n[0, 1]\n[0, 1]]", fillcolor="#e58139"] ;
673 -> 675 ;
676 [label="gini = 0.0\nsamples = 1\nvalue = [[0, 1]\n[0, 1]\n[0, 1]\n[1, 0]\n[1, 0]\n[1, 0]]", fillcolor="#e58139"] ;
630 -> 676 ;
677 [label="x[14] <= 2.5\ngini = 0.222\nsamples = 3\nvalue = [[0, 3]\n[0, 3]\n[1, 2]\n[1, 2]\n[2, 1]\n[3, 0]]", fillcolor="#f2be98"] ;
619 -> 677 ;
678 [label="gini = 0.0\nsamples = 1\nvalue = [[0, 1]\n[0, 1]\n[1, 0]\n[1, 0]\n[1, 0]\n[1, 0]]", fillcolor="#e58139"] ;
677 -> 678 ;
679 [label="x[12] <= 21.5\ngini = 0.083\nsamples = 2\nvalue = [[0, 2]\n[0, 2]\n[0, 2]\n[0, 2]\n[1, 1]\n[2, 0]]", fillcolor="#ea985d"] ;
677 -> 679 ;
680 [label="gini = 0.0\nsamples = 1\nvalue = [[0, 1]\n[0, 1]\n[0, 1]\n[0, 1]\n[0, 1]\n[1, 0]]", fillcolor="#e58139"] ;
679 -> 680 ;
681 [label="gini = 0.0\nsamples = 1\nvalue = [[0, 1]\n[0, 1]\n[0, 1]\n[0, 1]\n[1, 0]\n[1, 0]]", fillcolor="#e58139"] ;
679 -> 681 ;
682 [label="gini = 0.0\nsamples = 2\nvalue = [[0, 2]\n[0, 2]\n[0, 2]\n[0, 2]\n[0, 2]\n[0, 2]]", fillcolor="#e58139"] ;
618 -> 682 ;
683 [label="x[14] <= 3.5\ngini = 0.185\nsamples = 23\nvalue = [[0, 23]\n[0, 23]\n[0, 23]\n[6, 17]\n[11, 12]\n[20, 3]]", fillcolor="#efb489"] ;
617 -> 683 ;
684 [label="x[12] <= 29.0\ngini = 0.158\nsamples = 14\nvalue = [[0, 14]\n[0, 14]\n[0, 14]\n[2, 12]\n[5, 9]\n[12, 2]]", fillcolor="#eeac7d"] ;
683 -> 684 ;
685 [label="gini = 0.167\nsamples = 2\nvalue = [[0, 2]\n[0, 2]\n[0, 2]\n[1, 1]\n[1, 1]\n[2, 0]]", fillcolor="#eeaf81"] ;
684 -> 685 ;
686 [label="x[12] <= 31.5\ngini = 0.146\nsamples = 12\nvalue = [[0, 12]\n[0, 12]\n[0, 12]\n[1, 11]\n[4, 8]\n[10, 2]]", fillcolor="#eda978"] ;
684 -> 686 ;
687 [label="x[14] <= 1.5\ngini = 0.125\nsamples = 8\nvalue = [[0, 8]\n[0, 8]\n[0, 8]\n[0, 8]\n[2, 6]\n[6, 2]]", fillcolor="#eca36f"] ;
686 -> 687 ;
688 [label="gini = 0.083\nsamples = 2\nvalue = [[0, 2]\n[0, 2]\n[0, 2]\n[0, 2]\n[0, 2]\n[1, 1]]", fillcolor="#ea985d"] ;
687 -> 688 ;
689 [label="x[12] <= 30.5\ngini = 0.12\nsamples = 6\nvalue = [[0, 6]\n[0, 6]\n[0, 6]\n[0, 6]\n[2, 4]\n[5, 1]]", fillcolor="#eca26d"] ;
687 -> 689 ;
690 [label="x[14] <= 2.5\ngini = 0.074\nsamples = 3\nvalue = [[0, 3]\n[0, 3]\n[0, 3]\n[0, 3]\n[1, 2]\n[3, 0]]", fillcolor="#e99559"] ;
689 -> 690 ;
691 [label="gini = 0.0\nsamples = 1\nvalue = [[0, 1]\n[0, 1]\n[0, 1]\n[0, 1]\n[1, 0]\n[1, 0]]", fillcolor="#e58139"] ;
690 -> 691 ;
692 [label="gini = 0.0\nsamples = 2\nvalue = [[0, 2]\n[0, 2]\n[0, 2]\n[0, 2]\n[0, 2]\n[2, 0]]", fillcolor="#e58139"] ;
690 -> 692 ;
693 [label="x[14] <= 2.5\ngini = 0.148\nsamples = 3\nvalue = [[0, 3]\n[0, 3]\n[0, 3]\n[0, 3]\n[1, 2]\n[2, 1]]", fillcolor="#eda979"] ;
689 -> 693 ;
694 [label="gini = 0.083\nsamples = 2\nvalue = [[0, 2]\n[0, 2]\n[0, 2]\n[0, 2]\n[0, 2]\n[1, 1]]", fillcolor="#ea985d"] ;
693 -> 694 ;
695 [label="gini = 0.0\nsamples = 1\nvalue = [[0, 1]\n[0, 1]\n[0, 1]\n[0, 1]\n[1, 0]\n[1, 0]]", fillcolor="#e58139"] ;
693 -> 695 ;
696 [label="x[14] <= 0.5\ngini = 0.146\nsamples = 4\nvalue = [[0, 4]\n[0, 4]\n[0, 4]\n[1, 3]\n[2, 2]\n[4, 0]]", fillcolor="#eda978"] ;
686 -> 696 ;
697 [label="gini = 0.0\nsamples = 1\nvalue = [[0, 1]\n[0, 1]\n[0, 1]\n[0, 1]\n[0, 1]\n[1, 0]]", fillcolor="#e58139"] ;
696 -> 697 ;
698 [label="x[14] <= 2.0\ngini = 0.148\nsamples = 3\nvalue = [[0, 3]\n[0, 3]\n[0, 3]\n[1, 2]\n[2, 1]\n[3, 0]]", fillcolor="#eda979"] ;
696 -> 698 ;
699 [label="gini = 0.0\nsamples = 1\nvalue = [[0, 1]\n[0, 1]\n[0, 1]\n[0, 1]\n[1, 0]\n[1, 0]]", fillcolor="#e58139"] ;
698 -> 699 ;
700 [label="gini = 0.167\nsamples = 2\nvalue = [[0, 2]\n[0, 2]\n[0, 2]\n[1, 1]\n[1, 1]\n[2, 0]]", fillcolor="#eeaf81"] ;
698 -> 700 ;
701 [label="x[14] <= 5.5\ngini = 0.189\nsamples = 9\nvalue = [[0, 9]\n[0, 9]\n[0, 9]\n[4, 5]\n[6, 3]\n[8, 1]]", fillcolor="#f0b58a"] ;
683 -> 701 ;
702 [label="x[13] <= 0.5\ngini = 0.122\nsamples = 7\nvalue = [[0, 7]\n[0, 7]\n[0, 7]\n[4, 3]\n[6, 1]\n[7, 0]]", fillcolor="#eca26e"] ;
701 -> 702 ;
703 [label="x[12] <= 30.5\ngini = 0.133\nsamples = 5\nvalue = [[0, 5]\n[0, 5]\n[0, 5]\n[2, 3]\n[4, 1]\n[5, 0]]", fillcolor="#eda572"] ;
702 -> 703 ;
704 [label="gini = 0.148\nsamples = 3\nvalue = [[0, 3]\n[0, 3]\n[0, 3]\n[2, 1]\n[2, 1]\n[3, 0]]", fillcolor="#eda979"] ;
703 -> 704 ;
705 [label="gini = 0.0\nsamples = 2\nvalue = [[0, 2]\n[0, 2]\n[0, 2]\n[0, 2]\n[2, 0]\n[2, 0]]", fillcolor="#e58139"] ;
703 -> 705 ;
706 [label="gini = 0.0\nsamples = 2\nvalue = [[0, 2]\n[0, 2]\n[0, 2]\n[2, 0]\n[2, 0]\n[2, 0]]", fillcolor="#e58139"] ;
702 -> 706 ;
